<?xml version="1.0"?>
<opencv_storage>
<opencv_ml_ann_mlp>
  <format>3</format>
  <layer_sizes>
    1024 6 1</layer_sizes>
  <activation_function>SIGMOID_SYM</activation_function>
  <f_param1>6.6666666666666663e-01</f_param1>
  <f_param2>1.7159000000000000e+00</f_param2>
  <min_val>-9.4999999999999996e-01</min_val>
  <max_val>9.4999999999999996e-01</max_val>
  <min_val1>-9.7999999999999998e-01</min_val1>
  <max_val1>9.7999999999999998e-01</max_val1>
  <training_params>
    <train_method>BACKPROP</train_method>
    <dw_scale>1.0000000000000001e-01</dw_scale>
    <moment_scale>0.</moment_scale>
    <term_criteria>
      <epsilon>9.9999999999999995e-07</epsilon>
      <iterations>10000</iterations></term_criteria></training_params>
  <input_scale>
    5.4576584755768698e+00 -1.8983159915049982e-01
    3.7990812154456619e+00 -2.8453146830967513e-01
    4.0460298016373821e+00 -2.6443897441276581e-01
    3.4741242653661768e+00 -3.1671539586087172e-01
    3.5541691783566920e+00 -3.0806122752095871e-01
    3.4741242653661768e+00 -3.1671539586087172e-01
    3.4935470390902110e+00 -3.1456622708217608e-01
    3.5699048488509559e+00 -3.0642100525901617e-01
    3.0343271806612138e+00 -3.7620550178183915e-01
    2.9168446987087022e+00 -3.9682178930539147e-01
    2.6817780182170488e+00 -4.4758987961827318e-01
    2.6710572621661397e+00 -4.5029604896545583e-01
    2.8870457243092633e+00 -4.0248575735812170e-01
    2.5852780461564691e+00 -4.7354461827213867e-01
    2.4099525156678179e+00 -5.3269076643653313e-01
    2.2648853194609395e+00 -6.0100463175597452e-01
    2.2266320913795439e+00 -6.2395665057171512e-01
    2.2633593110114214e+00 -6.0186946054385071e-01
    2.3061756689318034e+00 -5.7896976821710078e-01
    2.5761373953708162e+00 -4.7620604307135150e-01
    2.5976955545068479e+00 -4.6998979878174391e-01
    2.7019177390168840e+00 -4.4261429441398609e-01
    2.7935869024983013e+00 -4.2158478360282925e-01
    2.9611881650434788e+00 -3.8873381801973300e-01
    3.3395876124812602e+00 -3.3255360516994320e-01
    3.8322567838870429e+00 -2.8164131202760317e-01
    4.0460298016373821e+00 -2.6443897441276581e-01
    4.5551750344329269e+00 -2.3127256135550064e-01
    4.2856916616623613e+00 -2.4764445506379987e-01
    4.4083827361418537e+00 -2.3989516151795781e-01
    4.7873874541893109e+00 -2.1889036606812279e-01
    5.1839754812025465e+00 -2.0067001862719536e-01
    4.6411009517552921e+00 -2.2652217829044063e-01
    3.9830935375353080e+00 -2.6926382680112465e-01
    3.8322567838870429e+00 -2.8164131202760317e-01
    3.4550738035853032e+00 -3.1885533839538988e-01
    3.2109612460154051e+00 -3.4946787193659951e-01
    3.1753672880727830e+00 -3.5450103244122516e-01
    3.4837883920953998e+00 -3.1564197774104186e-01
    3.0110935723613710e+00 -3.8008193760522213e-01
    2.8445004053618574e+00 -4.1091660834820659e-01
    2.6501540543359439e+00 -4.5569268872592811e-01
    2.4921698698239316e+00 -5.0262836925761767e-01
    2.1889686078185675e+00 -6.4962939328809111e-01
    2.0298366636405909e+00 -8.4154238116712299e-01
    2.0044342490949125e+00 -9.3559006745972917e-01
    2.0004666748182474e+00 -9.7862941960253114e-01
    2.0001455007504871e+00 -1.0121353389491947e+00
    2.0048177234855440e+00 -1.0718604715184985e+00
    2.0010413955404989e+00 -1.0327955589886446e+00
    2.0000856912981608e+00 -1.0092999042483566e+00
    2.0037844299454690e+00 -9.4034540008380640e-01
    2.0316692017328828e+00 -8.3717308761447551e-01
    2.1023921333024971e+00 -7.2713870977895623e-01
    2.4289531842409526e+00 -5.2530796775589750e-01
    2.7461745586057207e+00 -4.3214696420134902e-01
    2.9665781094928616e+00 -3.8777711052557462e-01
    3.1894316696187559e+00 -3.5249258845155396e-01
    3.0491967170379555e+00 -3.7377250079820101e-01
    3.2219263557893743e+00 -3.4794997110207831e-01
    3.3107529873109209e+00 -3.3618305228795331e-01
    3.6075789968968897e+00 -3.0257114167522303e-01
    3.9306190803918142e+00 -2.7343437080986532e-01
    4.2472089212506177e+00 -2.5018621976511357e-01
    4.4299696335466754e+00 -2.3858461981513654e-01
    3.6409865657733702e+00 -2.9924517917856874e-01
    3.4090039430556343e+00 -3.2416615335087240e-01
    3.0674069909315667e+00 -3.7084219161052040e-01
    2.9558356209702894e+00 -3.8968940865526958e-01
    2.8286115247421328e+00 -4.1417537613335020e-01
    2.9558356209702894e+00 -3.8968940865526958e-01
    2.6535891549347106e+00 -4.5479466301966570e-01
    2.4416662784289720e+00 -5.2052352639720023e-01
    2.0715732426764504e+00 -7.6587195900352367e-01
    2.0027571569366902e+00 -9.4885184798487243e-01
    2.0082598071091469e+00 -1.0951071711136555e+00
    2.0269113509298737e+00 -1.1780533854492843e+00
    2.0762060743246042e+00 -1.3167747360583255e+00
    2.1064582716784828e+00 -1.3838219557562430e+00
    2.1377466217941610e+00 -1.4463519920806498e+00
    2.1507044095053707e+00 -1.4708043058552860e+00
    2.1362998851754749e+00 -1.4435754343303560e+00
    2.1246209514070893e+00 -1.4207843893841516e+00
    2.0856242868389669e+00 -1.3385437218197915e+00
    2.0400579761615374e+00 -1.2211735543138067e+00
    2.0077533491039814e+00 -1.0920150754313098e+00
    2.0027571569366902e+00 -9.4885184798487243e-01
    2.0541276874566390e+00 -7.9284142999728902e-01
    2.4681323763545104e+00 -5.1093455645150876e-01
    2.7893304301473623e+00 -4.2250727413171824e-01
    2.9665781094928616e+00 -3.8777711052557462e-01
    2.9042830092085667e+00 -3.9918616395854073e-01
    3.0226260258483850e+00 -3.7814620127023274e-01
    3.3026762645142758e+00 -3.3721575323511821e-01
    3.6466585934586231e+00 -2.9868844580362358e-01
    4.2006635729744914e+00 -2.5333595180631580e-01
    4.2954924987946290e+00 -2.4700588001483845e-01
    3.4045147193449177e+00 -3.2469425093331616e-01
    3.1083006686269075e+00 -3.6445152299748873e-01
    2.9505200817555313e+00 -3.9064389301223307e-01
    2.7207922475343649e+00 -4.3807426369838026e-01
    3.0168389465216299e+00 -3.7911468388266206e-01
    2.6746105272066631e+00 -4.4939458788128789e-01
    2.3070331276390501e+00 -5.7853790073192457e-01
    2.0033800372550141e+00 -9.4352737238461959e-01
    2.0085715170005400e+00 -1.0969673895091310e+00
    2.0616065466964892e+00 -1.2809140255070754e+00
    2.1789919635918724e+00 -1.5219326758327525e+00
    2.2664180827253348e+00 -1.6662782033164383e+00
    2.3165932983395514e+00 -1.7428059540383385e+00
    2.3741640340251942e+00 -1.8267410786342517e+00
    2.4023489212993292e+00 -1.8666217424962530e+00
    2.4232845668232939e+00 -1.8958038308191212e+00
    2.4034274669290290e+00 -1.8681339441403477e+00
    2.3906509060374335e+00 -1.8501559185854921e+00
    2.3263931746572730e+00 -1.7573567515713988e+00
    2.2588214902308845e+00 -1.6543570577820028e+00
    2.1919746691786588e+00 -1.5445274527284127e+00
    2.0792739921408989e+00 -1.3239696948554953e+00
    2.0184565540556272e+00 -1.1453962437179619e+00
    2.0074572964932940e+00 -9.1729254866411669e-01
    2.1486612161325045e+00 -6.8166503098060660e-01
    2.6835827142612829e+00 -4.4713832602277764e-01
    2.7112861191155728e+00 -4.4034632902325860e-01
    2.8376473819268000e+00 -4.1231454245107502e-01
    3.0053894423548577e+00 -3.8104797417795111e-01
    3.2946696210440236e+00 -3.3824658662050844e-01
    3.9016521355915978e+00 -2.7579700930409057e-01
    4.2567232453624291e+00 -2.4955263906893344e-01
    3.2037260005648003e+00 -3.5047773919222225e-01
    2.9665781094928616e+00 -3.8777711052557462e-01
    2.7663817493775360e+00 -4.2756699688836530e-01
    2.7382600034707569e+00 -4.3397388554305122e-01
    2.6781840565330550e+00 -4.4849253345027601e-01
    2.1772698623182825e+00 -6.5837220521153117e-01
    2.0007716184377000e+00 -9.7260510932749911e-01
    2.0508579785153565e+00 -1.2523752648605699e+00
    2.1721714994664025e+00 -1.5098572161788910e+00
    2.2977058304419198e+00 -1.7144172535695672e+00
    2.4143543357372232e+00 -1.8833995533478871e+00
    2.5297472274393957e+00 -2.0394091252905535e+00
    2.5568230969799695e+00 -2.0748637362028197e+00
    2.6200814949351217e+00 -2.1563307450602096e+00
    2.6168311218685876e+00 -2.1521876155171666e+00
    2.6501540543359439e+00 -2.1944613656100160e+00
    2.6535891549347110e+00 -2.1987944919150455e+00
    2.6433411239418683e+00 -2.1858540346088717e+00
    2.5626957894771887e+00 -2.0825048252778164e+00
    2.4844562925218052e+00 -1.9792022077873570e+00
    2.4088585668942728e+00 -1.8757339079098181e+00
    2.2886048723746688e+00 -1.7005650229791018e+00
    2.1987054324522868e+00 -1.5560543635559942e+00
    2.0444068139010976e+00 -1.2340991482510975e+00
    2.0001077257353135e+00 -1.0104331035201402e+00
    2.0677353378988896e+00 -7.7141318356396171e-01
    2.6299401198532268e+00 -4.6106944597707344e-01
    2.6332626347310555e+00 -4.6017464836955052e-01
    2.8263704567661208e+00 -4.1464004176400598e-01
    3.1245782399968207e+00 -3.6197778769107630e-01
    3.8664306250260769e+00 -2.7873006188827543e-01
    4.2472089212506177e+00 -2.5018621976511357e-01
    3.1445337963805033e+00 -3.5899726651524966e-01
    2.8821938431507554e+00 -4.0342629108898376e-01
    2.8000212603897916e+00 -4.2019954398556481e-01
    2.6553139315560803e+00 -4.5434544130412591e-01
    2.1148850824486112e+00 -7.1366248364254681e-01
    2.0018444387698975e+00 -1.0438790495577108e+00
    2.0613087719034948e+00 -1.2801508053280051e+00
    2.2391272526982298e+00 -1.6229747043400353e+00
    2.3906509060374335e+00 -1.8501559185854921e+00
    2.5173766584657886e+00 -2.0230811014037826e+00
    2.6332626347310555e+00 -2.1730879863615051e+00
    2.7663817493775360e+00 -2.3388147524891707e+00
    2.7935869024983013e+00 -2.3720021188954723e+00
    2.8130717834824330e+00 -2.3956482285140721e+00
    2.8219095589506846e+00 -2.4063408300729545e+00
    2.8000212603897916e+00 -2.3798217164042268e+00
    2.8241364793619970e+00 -2.4090319870237962e+00
    2.8353776113064177e+00 -2.4225975326898594e+00
    2.7704970582969648e+00 -2.3438482826994802e+00
    2.7284983342926616e+00 -2.2922447436764437e+00
    2.6217133568222213e+00 -2.1584091731481685e+00
    2.5339344974711637e+00 -2.0449171246071636e+00
    2.4055922093353543e+00 -1.8711661140215814e+00
    2.2081496530046150e+00 -1.5720291218304947e+00
    2.0772208571506399e+00 -1.3191663451862690e+00
    2.0015661344642179e+00 -1.0403652306205320e+00
    2.0429299606997429e+00 -8.1316062110320764e-01
    2.7935869024983013e+00 -4.2158478360282925e-01
    2.8353776113064164e+00 -4.1278007861655830e-01
    3.0025527018009464e+00 -3.8153053966783418e-01
    3.7542251229368846e+00 -2.8854352978533143e-01
    4.0220423124573887e+00 -2.6625581647684260e-01
    3.2556548155770937e+00 -3.4337341112397962e-01
    2.9117946639875485e+00 -3.9776830332733132e-01
    2.6200814949351212e+00 -4.6375074987491205e-01
    2.1766983582145145e+00 -6.5880996592242957e-01
    2.0010413955404989e+00 -1.0327955589886446e+00
    2.0661719903093516e+00 -1.2924441902916843e+00
    2.2441214106084546e+00 -1.6310010027732136e+00
    2.4370043280963780e+00 -1.9147402869559480e+00
    2.5837444532970908e+00 -2.1097559897749880e+00
    2.6926842082973708e+00 -2.2478059477960661e+00
    2.8000212603897916e+00 -2.3798217164042268e+00
    2.9270477770620729e+00 -2.5321221162579053e+00
    2.9885200134914935e+00 -2.6045811169475654e+00
    3.0226260258483859e+00 -2.6444798245781533e+00
    3.0284552786464425e+00 -2.6512788007448944e+00
    3.0025527018009477e+00 -2.6210221621331136e+00
    3.0343271806612151e+00 -2.6581216788793758e+00
    2.9997261026364388e+00 -2.6177132974199049e+00
    2.9692872320923533e+00 -2.5819888974716116e+00
    2.8422087438651458e+00 -2.4308259354964461e+00
    2.7767172374795077e+00 -2.3514472201825063e+00
    2.7362960638358702e+00 -2.3018658893250423e+00
    2.6366035425791154e+00 -2.1773242158072694e+00
    2.4199157674963820e+00 -1.8911319293814643e+00
    2.2618400248197537e+00 -1.6591056563544617e+00
    2.0852639007996912e+00 -1.3377275010179226e+00
    2.0058037235022055e+00 -1.0791392823779047e+00
    2.0522065575560502e+00 -7.9612950044881270e-01
    2.7808958353555364e+00 -4.2434988343153213e-01
    3.1823710983958953e+00 -3.5349760307567307e-01
    3.5284683434405806e+00 -3.1078234497625312e-01
    3.4317672215879393e+00 -3.2151760224694864e-01
    3.0168389465216299e+00 -3.7911468388266206e-01
    2.7112861191155728e+00 -4.4034632902325860e-01
    2.3002269222360798e+00 -5.8199289869759996e-01
    2.0000063733537790e+00 -9.9747863445245977e-01
    2.0622045537600342e+00 -1.2824424952835896e+00
    2.2595736291625528e+00 -1.6555417445645408e+00
    2.4404965674275667e+00 -1.9195378331183441e+00
    2.6366035425791154e+00 -2.1773242158072694e+00
    2.7746375109283692e+00 -2.3489077161239322e+00
    2.8399244144564064e+00 -2.4280756284048044e+00
    2.9774718116526770e+00 -2.5916115095535082e+00
    3.1018769395498484e+00 -2.7364384221274261e+00
    3.1929834660621865e+00 -2.8409939843896930e+00
    3.2330285027734003e+00 -2.8866002031774847e+00
    3.1823710983958953e+00 -2.8288734953202224e+00
    3.1788621428216093e+00 -2.8248626278986979e+00
    3.1581014591912671e+00 -2.8010986855435589e+00
    3.1965497249391333e+00 -2.8450637523792062e+00
    3.1278717725143381e+00 -2.7663898173177301e+00
    3.0255353510055683e+00 -2.6478738555785060e+00
    2.9452411577563566e+00 -2.5536438761921176e+00
    2.8607503429983709e+00 -2.4531034498025304e+00
    2.7684362750505080e+00 -2.3413282943274285e+00
    2.5945661637872566e+00 -2.1236869750157688e+00
    2.4187981796334888e+00 -1.8895800645944645e+00
    2.2405463265651955e+00 -1.6252602525939959e+00
    2.0709251192883991e+00 -1.3041309657229891e+00
    2.0004912415566674e+00 -9.7808029005140851e-01
    2.1114666845299275e+00 -7.1724716829333579e-01
    2.8263704567661208e+00 -4.1464004176400598e-01
    3.2749533907608703e+00 -3.4081562635968665e-01
    3.0197272439427758e+00 -3.7863059692634526e-01
    2.8196896621779826e+00 -4.1603275239989307e-01
    2.4428388199487059e+00 -5.2008826489230520e-01
    2.0046624056877769e+00 -9.3400960893335139e-01
    2.0495289892949011e+00 -1.2486891906727982e+00
    2.2356067161839599e+00 -1.6172874392814680e+00
    2.4882986592805625e+00 -1.9843571075272479e+00
    2.6535891549347110e+00 -2.1987944919150455e+00
    2.8152708072444734e+00 -2.3983106428054604e+00
    2.9585072428187367e+00 -2.5692954905376744e+00
    3.0643436204301762e+00 -2.6930122195814143e+00
    3.1083006686269075e+00 -2.7438491456294187e+00
    3.2182562244329129e+00 -2.8697998702586904e+00
    3.2480492255360924e+00 -2.9036557873165574e+00
    3.3026762645142780e+00 -2.9654605112791597e+00
    3.3437804201533523e+00 -3.0117472451928231e+00
    3.3312578235609309e+00 -2.9976648241187847e+00
    3.3026762645142780e+00 -2.9654605112791597e+00
    3.2867321025098888e+00 -2.9474565306379006e+00
    3.2367601370193508e+00 -2.8908399091920374e+00
    3.1615271206315954e+00 -2.8050239221760829e+00
    3.0612916669804706e+00 -2.6894713887749888e+00
    3.0168389465216308e+00 -2.6377242626389688e+00
    2.9426153062781810e+00 -2.5505417381204993e+00
    2.7461745586057216e+00 -2.3140275944043722e+00
    2.6119886805314692e+00 -2.1460069692220682e+00
    2.4487443020458564e+00 -1.9308331649511647e+00
    2.2513905618813355e+00 -1.6425993973221187e+00
    2.0677353378988896e+00 -1.2963221543349281e+00
    2.0007407397018699e+00 -9.7315131630940888e-01
    2.2648853194609395e+00 -6.0100463175597452e-01
    3.0491967170379555e+00 -3.7377250079820101e-01
    2.8725853976752109e+00 -4.0530447546441267e-01
    2.6799784727481444e+00 -4.4804128183952147e-01
    2.0652439992496019e+00 -7.7511822468330083e-01
    2.0126453382418372e+00 -1.1189517700968643e+00
    2.1789919635918724e+00 -1.5219326758327525e+00
    2.4255438791041155e+00 -1.8989321084374717e+00
    2.6168311218685876e+00 -2.1521876155171666e+00
    2.7829947649629925e+00 -2.3591052397526404e+00
    2.9478760669802493e+00 -2.5567553433668810e+00
    3.1344974729034161e+00 -2.7740082824713261e+00
    3.2146012203661321e+00 -2.8656388999505102e+00
    3.2182562244329129e+00 -2.8697998702586904e+00
    3.3312578235609309e+00 -2.9976648241187847e+00
    3.3650289172553292e+00 -3.0356053290022831e+00
    3.4090039430556329e+00 -3.0848377897047605e+00
    3.4135141018964004e+00 -3.0898765797530672e+00
    3.3823772986578828e+00 -3.0550504633038944e+00
    3.3564720860189969e+00 -3.0260031653478419e+00
    3.4135141018964004e+00 -3.0898765797530672e+00
    3.3607408383343631e+00 -3.0307943324670346e+00
    3.3189007624147937e+00 -2.9837522983280262e+00
    3.2146012203661321e+00 -2.8656388999505102e+00
    3.1479056309580100e+00 -2.7894064202514319e+00
    3.0643436204301762e+00 -2.6930122195814143e+00
    2.8870457243092638e+00 -2.4845599669511422e+00
    2.7481680264828681e+00 -2.3164782383116460e+00
    2.5746280593067974e+00 -2.0979788253257352e+00
    2.4154613368477569e+00 -1.8849406561319662e+00
    2.1962390447819935e+00 -1.5518446434237987e+00
    2.0156226225441052e+00 -1.1330456481285798e+00
    2.0346364002006556e+00 -8.3040559952088477e-01
    2.7829947649629916e+00 -4.2388952521035189e-01
    2.7362960638358689e+00 -4.3443017451082799e-01
    2.5013165206774479e+00 -4.9956167257288725e-01
    2.0052172779388502e+00 -9.3033082123726740e-01
    2.0643234869709151e+00 -1.2878135862617994e+00
    2.2985443175743221e+00 -1.7156876378864716e+00
    2.5133157740745569e+00 -2.0177025933804718e+00
    2.7019177390168849e+00 -2.2593034446028990e+00
    2.8491058666618088e+00 -2.4391223296078093e+00
    3.0552217488479165e+00 -2.6824247051596015e+00
    3.1718864457343492e+00 -2.8168842881332257e+00
    3.2633250220506427e+00 -2.9209733928088641e+00
    3.3607408383343631e+00 -3.0307943324670346e+00
    3.4135141018964004e+00 -3.0898765797530672e+00
    3.3693364617062307e+00 -3.0404362965803493e+00
    3.4456846605814331e+00 -3.1257627467939284e+00
    3.5034016882303467e+00 -3.1899135708262847e+00
    3.4456846605814331e+00 -3.1257627467939284e+00
    3.4837883920954020e+00 -3.1681464143543603e+00
    3.4645532088775313e+00 -3.1467667013591716e+00
    3.3911711286014037e+00 -3.0648957577429798e+00
    3.3693364617062307e+00 -3.0404362965803493e+00
    3.2946696210440249e+00 -2.9564230344235165e+00
    3.2518439971191890e+00 -2.9079603542260801e+00
    3.0986834856280114e+00 -2.7327519996674523e+00
    2.9802192472049183e+00 -2.5948388620824869e+00
    2.8219095589506846e+00 -2.4063408300729545e+00
    2.6817780182170496e+00 -2.2341881385987765e+00
    2.4973768596262049e+00 -1.9965004347642874e+00
    2.2968692136883964e+00 -1.7131487346977410e+00
    2.0984221516532413e+00 -1.3667703327177634e+00
    2.0017024322731625e+00 -9.5958189530289895e-01
    2.2470099005206365e+00 -6.1138838807994877e-01
    2.6746105272066631e+00 -4.4939458788128789e-01
    2.1538037417007643e+00 -6.7725497740436369e-01
    2.0052991209395588e+00 -1.0754928244702486e+00
    2.1801463805311521e+00 -1.5239620702057872e+00
    2.4034274669290290e+00 -1.8681339441403477e+00
    2.6399629896680139e+00 -2.1815795140426282e+00
    2.7746375109283692e+00 -2.3489077161239322e+00
    2.9692872320923533e+00 -2.5819888974716116e+00
    3.0891758973837060e+00 -2.7217675999108617e+00
    3.2219263557893756e+00 -2.8739763846872974e+00
    3.3955984635854022e+00 -3.0698496067701968e+00
    3.3867641228358405e+00 -3.0599627600713166e+00
    3.4598021373352270e+00 -3.1414809308707241e+00
    3.5234050851957677e+00 -3.2120803721981055e+00
    3.5805302151999352e+00 -3.2752058995138822e+00
    3.5752038924196379e+00 -3.2693309086361908e+00
    3.6638582773663146e+00 -3.3668442402951047e+00
    3.5699048488509573e+00 -3.2634838435919411e+00
    3.5593877108002698e+00 -3.2518725873987320e+00
    3.4410235114426331e+00 -3.1205691479646656e+00
    3.3867641228358405e+00 -3.0599627600713166e+00
    3.4135141018964004e+00 -3.0898765797530672e+00
    3.2946696210440249e+00 -2.9564230344235165e+00
    3.1649664485040452e+00 -2.8089632098364095e+00
    3.0255353510055683e+00 -2.6478738555785060e+00
    2.9452411577563566e+00 -2.5536438761921176e+00
    2.7684362750505080e+00 -2.3413282943274285e+00
    2.6249905184420483e+00 -2.1625798464696486e+00
    2.4143543357372232e+00 -1.8833995533478871e+00
    2.1854047080216534e+00 -1.5331548877313199e+00
    2.0160538178902603e+00 -1.1349845757379391e+00
    2.0715732426764504e+00 -7.6587195900352367e-01
    2.6484436916370426e+00 -4.5614149415572069e-01
    2.0370683600050423e+00 -8.2511268214509992e-01
    2.0322930395889847e+00 -1.1965730968014807e+00
    2.2419716486692698e+00 -1.6275519289638347e+00
    2.5039595195309259e+00 -2.0052747344350053e+00
    2.7362960638358702e+00 -2.3018658893250423e+00
    2.9042830092085676e+00 -2.5050968452500268e+00
    3.0797759769620310e+00 -2.7108939735503097e+00
    3.1965497249391333e+00 -2.8450637523792062e+00
    3.3479920124220834e+00 -3.0164797598596724e+00
    3.3911711286014037e+00 -3.0648957577429798e+00
    3.4550738035853050e+00 -3.1362184651899154e+00
    3.5335569643508089e+00 -3.2233176011413271e+00
    3.6991081431457813e+00 -3.4054622512775472e+00
    3.7171734931255505e+00 -3.4252215778169517e+00
    3.7796357020985196e+00 -3.4933799827249996e+00
    3.8056387286744480e+00 -3.5216836369977575e+00
    3.7925617758399017e+00 -3.5074547475299176e+00
    3.7293855536865714e+00 -3.4385667082658515e+00
    3.6021128449039677e+00 -3.2989897443510392e+00
    3.5183669884221729e+00 -3.2065005176391699e+00
    3.3479920124220834e+00 -3.0164797598596724e+00
    3.2867321025098888e+00 -2.9474565306379006e+00
    3.2293123951354086e+00 -2.8823764491783650e+00
    3.0735682486990705e+00 -2.7037054776774996e+00
    3.0025527018009477e+00 -2.6210221621331136e+00
    2.8919298032691749e+00 -2.4903855528853764e+00
    2.7265632831991771e+00 -2.2898542692561956e+00
    2.5000000000000004e+00 -2.0000000000000004e+00
    2.2805224176624166e+00 -1.6881623170297666e+00
    2.0417201075927647e+00 -1.2261774895809563e+00
    2.0145024222300325e+00 -8.8660709690853334e-01
    2.5146659666423732e+00 -4.9517405570349116e-01
    2.0093217452649426e+00 -9.0799925150682270e-01
    2.0718985823768046e+00 -1.3064875212294689e+00
    2.3364399034104846e+00 -1.7721552591365919e+00
    2.5731227135431833e+00 -2.0960303955482202e+00
    2.8174767559126463e+00 -2.4009801919951248e+00
    2.9941031063461137e+00 -2.6111266641318562e+00
    3.1929834660621865e+00 -2.8409939843896930e+00
    3.3107529873109214e+00 -2.9745699350229682e+00
    3.4271717516130931e+00 -3.1051233541964351e+00
    3.4363844202771516e+00 -3.1153981616650084e+00
    3.5699048488509573e+00 -3.2634838435919411e+00
    3.7171734931255505e+00 -3.4252215778169517e+00
    3.8390101574237341e+00 -3.5579493857301592e+00
    3.9233097694104613e+00 -3.6492833647587912e+00
    3.9528237487758271e+00 -3.6811710647786109e+00
    4.0063109608320886e+00 -3.7388489668130038e+00
    3.9830935375353089e+00 -3.7138297107341844e+00
    3.9016521355916001e+00 -3.6258551262875094e+00
    3.7417352592858260e+00 -3.4520525295346651e+00
    3.6130738202320778e+00 -3.3110553073487234e+00
    3.3650289172553292e+00 -3.0356053290022831e+00
    3.3354134572391541e+00 -3.0023399114391154e+00
    3.2633250220506427e+00 -2.9209733928088641e+00
    3.1684195281681209e+00 -2.8129166358070412e+00
    3.0766662701320713e+00 -2.7072937137178985e+00
    2.9452411577563566e+00 -2.5536438761921176e+00
    2.7501674785483670e+00 -2.3189350464281602e+00
    2.5452600977574003e+00 -2.0597686906115289e+00
    2.3263931746572730e+00 -1.7573567515713988e+00
    2.0999986996072026e+00 -1.3701534292528341e+00
    2.0011529941405977e+00 -9.6661583615991842e-01
    2.3761914758858165e+00 -5.4655736612240380e-01
    2.0002210572022165e+00 -1.0149789319716156e+00
    2.1044130901471645e+00 -1.3795268980852522e+00
    2.3948698007785065e+00 -1.8561080671952352e+00
    2.6763947483761368e+00 -2.2274511131646557e+00
    2.8445004053618574e+00 -2.4335837970136511e+00
    3.0343271806612151e+00 -2.6581216788793758e+00
    3.2001305386844203e+00 -2.8491484796029036e+00
    3.2867321025098888e+00 -2.9474565306379006e+00
    3.4271717516130931e+00 -3.1051233541964351e+00
    3.4935470390902119e+00 -3.1789808120080356e+00
    3.5805302151999352e+00 -3.2752058995138822e+00
    3.8255433310324496e+00 -3.5433223223195371e+00
    3.9528237487758271e+00 -3.6811710647786109e+00
    4.0704994186513996e+00 -3.8078865529319548e+00
    4.1735289580952113e+00 -3.9183173696338494e+00
    4.1825095628565201e+00 -3.9279220242478625e+00
    4.0704994186513996e+00 -3.8078865529319548e+00
    4.0141509731367497e+00 -3.7472915676294822e+00
    3.8188694195674731e+00 -3.5360695523119858e+00
    3.6353447031255048e+00 -3.3355434849715362e+00
    3.4935470390902119e+00 -3.1789808120080356e+00
    3.3650289172553292e+00 -3.0356053290022831e+00
    3.3650289172553292e+00 -3.0356053290022831e+00
    3.2037260005648021e+00 -2.8532482613725798e+00
    3.0735682486990705e+00 -2.7037054776774996e+00
    2.9829763908130658e+00 -2.5980762113533156e+00
    2.7582256625380066e+00 -2.3288244724374194e+00
    2.5837444532970908e+00 -2.1097559897749880e+00
    2.3802747240233142e+00 -1.8354488685385950e+00
    2.1416530096567228e+00 -1.4538009210011975e+00
    2.0007716184377000e+00 -1.0281665091102010e+00
    2.2702797591430626e+00 -5.9797831524132838e-01
    2.0002556901043245e+00 -1.0161186689421968e+00
    2.1353408547839274e+00 -1.4417294354740291e+00
    2.4187981796334888e+00 -1.8895800645944645e+00
    2.6817780182170496e+00 -2.2341881385987765e+00
    2.8331150678622077e+00 -2.4198696722694031e+00
    3.0110935723613719e+00 -2.6310116347561499e+00
    3.1788621428216093e+00 -2.8248626278986979e+00
    3.3522225227713127e+00 -3.0212316874233460e+00
    3.4225978483025572e+00 -3.1000192011694132e+00
    3.4789446050603638e+00 -3.1627656283311754e+00
    3.6872296068629922e+00 -3.3924580955148991e+00
    3.8803906287624219e+00 -3.6028311307724032e+00
    3.9985217367703481e+00 -3.7304581476853231e+00
    4.1295609447340809e+00 -3.8712461927913884e+00
    4.2190796809994673e+00 -3.9670000254446607e+00
    4.2006635729744914e+00 -3.9473276211681756e+00
    4.2190796809994673e+00 -3.9670000254446607e+00
    3.9985217367703481e+00 -3.7304581476853231e+00
    3.8458038360466160e+00 -3.5653244538945486e+00
    3.7293855536865714e+00 -3.4385667082658515e+00
    3.5133538541544427e+00 -3.2009462323404292e+00
    3.3693364617062307e+00 -3.0404362965803493e+00
    3.3271205818646825e+00 -2.9930086131949611e+00
    3.2146012203661321e+00 -2.8656388999505102e+00
    3.0372792758672498e+00 -2.6615597357108802e+00
    2.9478760669802493e+00 -2.5567553433668810e+00
    2.7582256625380066e+00 -2.3288244724374194e+00
    2.6055931990246326e+00 -2.1378289220608835e+00
    2.3843961607199882e+00 -1.8413022806345380e+00
    2.1580013851054720e+00 -1.4842691153656711e+00
    2.0029373214563946e+00 -1.0556856176764560e+00
    2.2245971184066637e+00 -6.2525843271906789e-01
    2.0076540136283874e+00 -1.0913978901575918e+00
    2.1655297370924882e+00 -1.4979512851809469e+00
    2.4370043280963780e+00 -1.9147402869559480e+00
    2.6382809395114597e+00 -2.1794494717703361e+00
    2.8021794091861278e+00 -2.3824420166179956e+00
    3.0025527018009477e+00 -2.6210221621331136e+00
    3.1615271206315954e+00 -2.8050239221760829e+00
    3.3354134572391541e+00 -3.0023399114391154e+00
    3.4363844202771516e+00 -3.1153981616650084e+00
    3.5133538541544427e+00 -3.2009462323404292e+00
    3.7050966272172330e+00 -3.4120146499731208e+00
    3.8874345080730150e+00 -3.6104616146507023e+00
    4.0870881755785211e+00 -3.8256979640688713e+00
    4.1825095628565201e+00 -3.9279220242478625e+00
    4.2006635729744914e+00 -3.9473276211681756e+00
    4.2006635729744914e+00 -3.9473276211681756e+00
    4.1915541860228149e+00 -3.9375918566593007e+00
    4.0220423124573887e+00 -3.7557864959805465e+00
    3.8526382093602134e+00 -3.5727410715693875e+00
    3.7171734931255505e+00 -3.4252215778169517e+00
    3.5284683434405815e+00 -3.2176859984643285e+00
    3.3479920124220834e+00 -3.0164797598596724e+00
    3.3564720860189969e+00 -3.0260031653478419e+00
    3.2073362046885845e+00 -2.8573631938544026e+00
    3.0432160603817660e+00 -2.6684693982477983e+00
    2.9558356209702894e+00 -2.5661462123150200e+00
    2.7851001541873059e+00 -2.3616711826390535e+00
    2.6266358533244607e+00 -2.1646721282096117e+00
    2.4045085603730589e+00 -1.8696487319366395e+00
    2.1836403334937011e+00 -1.5300795380272836e+00
    2.0075553295199038e+00 -1.0907811145245594e+00
    2.2610828924650401e+00 -6.0316685294088446e-01
    2.0022510600319445e+00 -1.0485842157306144e+00
    2.1301435514443638e+00 -1.4316476716018784e+00
    2.3991284947746423e+00 -1.8621005736441614e+00
    2.6315990872480648e+00 -2.1709769749218961e+00
    2.8152708072444734e+00 -2.3983106428054604e+00
    3.0343271806612151e+00 -2.6581216788793758e+00
    3.1753672880727826e+00 -2.8208662556315574e+00
    3.3522225227713127e+00 -3.0212316874233460e+00
    3.4317672215879398e+00 -3.1102496193409914e+00
    3.5133538541544427e+00 -3.2009462323404292e+00
    3.6241504503790321e+00 -3.3232392208384449e+00
    3.8390101574237341e+00 -3.5579493857301592e+00
    3.9754535236288731e+00 -3.7055910403979651e+00
    4.0870881755785211e+00 -3.8256979640688713e+00
    4.2283879548569780e+00 -3.9769382363633796e+00
    4.2472089212506186e+00 -3.9970227014855051e+00
    4.1039031687888707e+00 -3.8437398823523257e+00
    3.9528237487758271e+00 -3.6811710647786109e+00
    3.8390101574237341e+00 -3.5579493857301592e+00
    3.6580941850363113e+00 -3.3605213060291503e+00
    3.5284683434405815e+00 -3.2176859984643285e+00
    3.3479920124220834e+00 -3.0164797598596724e+00
    3.3395876124812616e+00 -3.0070340073113182e+00
    3.1965497249391333e+00 -2.8450637523792062e+00
    3.1115310907400544e+00 -2.7475735970966877e+00
    2.9747340318344739e+00 -2.5883941000702775e+00
    2.8043442912417453e+00 -2.3850692541500624e+00
    2.6315990872480648e+00 -2.1709769749218961e+00
    2.4034274669290290e+00 -1.8681339441403477e+00
    2.1486612161325045e+00 -1.4669961851518980e+00
    2.0037844299454690e+00 -1.0634390298616627e+00
    2.3621945261666455e+00 -5.5261437161934990e-01
    2.0005687271990658e+00 -9.7643466629070819e-01
    2.1153169019414970e+00 -1.4021020587062434e+00
    2.3813014855742214e+00 -1.8369085793349536e+00
    2.6315990872480648e+00 -2.1709769749218961e+00
    2.8000212603897916e+00 -2.3798217164042268e+00
    3.0284552786464425e+00 -2.6512788007448944e+00
    3.1788621428216093e+00 -2.8248626278986979e+00
    3.2518439971191890e+00 -2.9079603542260801e+00
    3.3564720860189969e+00 -3.0260031653478419e+00
    3.4363844202771516e+00 -3.1153981616650084e+00
    3.6130738202320778e+00 -3.3110553073487234e+00
    3.8595136722602024e+00 -3.5801996393168274e+00
    3.9160458093971715e+00 -3.6414282912066267e+00
    3.9603191264763651e+00 -3.6892622213262301e+00
    4.0460298016373848e+00 -3.7815908272246190e+00
    4.0870881755785211e+00 -3.8256979640688713e+00
    3.9453756005169081e+00 -3.6731280836228946e+00
    3.9233097694104613e+00 -3.6492833647587912e+00
    3.7542251229368868e+00 -3.4656815931515554e+00
    3.6130738202320778e+00 -3.3110553073487234e+00
    3.4886558086991633e+00 -3.1735514130747227e+00
    3.4135141018964004e+00 -3.0898765797530672e+00
    3.3395876124812616e+00 -3.0070340073113182e+00
    3.1965497249391333e+00 -2.8450637523792062e+00
    3.0860307212646139e+00 -2.7181308456580333e+00
    2.9665781094928625e+00 -2.5788009989672882e+00
    2.7872120326454124e+00 -2.3642438111415784e+00
    2.6217133568222213e+00 -2.1584091731481685e+00
    2.3802747240233142e+00 -1.8354488685385950e+00
    2.1595949167803212e+00 -1.4871824742484401e+00
    2.0008352709551271e+00 -1.0293217074142227e+00
    2.6640108624709034e+00 -4.5209721508973255e-01
    2.0011529941405977e+00 -9.6661583615991842e-01
    2.0789296127515247e+00 -1.3231672626460615e+00
    2.3410902127027158e+00 -1.7789658867353877e+00
    2.5852780461564695e+00 -2.1117334278843307e+00
    2.8174767559126463e+00 -2.4009801919951248e+00
    2.9531732502446602e+00 -2.5630064617831638e+00
    3.1212974822059150e+00 -2.7588242262078086e+00
    3.2109612460154056e+00 -2.8614933740788064e+00
    3.3823772986578828e+00 -3.0550504633038944e+00
    3.3955984635854022e+00 -3.0698496067701968e+00
    3.5034016882303467e+00 -3.1899135708262847e+00
    3.5858840425414158e+00 -3.2811090453773071e+00
    3.7925617758399017e+00 -3.5074547475299176e+00
    3.8322567838870438e+00 -3.5506154718594405e+00
    3.9306190803918142e+00 -3.6571847095819492e+00
    3.8874345080730150e+00 -3.6104616146507023e+00
    3.8188694195674731e+00 -3.5360695523119858e+00
    3.7732283717264008e+00 -3.4863995109303687e+00
    3.6185975565565212e+00 -3.3171323463749540e+00
    3.4789446050603638e+00 -3.1627656283311754e+00
    3.3312578235609309e+00 -2.9976648241187847e+00
    3.3607408383343631e+00 -3.0307943324670346e+00
    3.2594817878921862e+00 -2.9166190472303155e+00
    3.1344974729034161e+00 -2.7740082824713261e+00
    3.0491967170379564e+00 -2.6754242162397555e+00
    2.9168446987087031e+00 -2.5200229094033118e+00
    2.7094015172652748e+00 -2.2686012704170673e+00
    2.5539097145639467e+00 -2.0710667559058540e+00
    2.3439059204263812e+00 -1.7830779400270256e+00
    2.1007926843130620e+00 -1.3718500334027512e+00
    2.0007716184377000e+00 -9.7260510932749911e-01
    2.6008418330775207e+00 -4.6909994352562295e-01
    2.0327125551779983e+00 -8.3475208437043191e-01
    2.0497932251304554e+00 -1.2494251551776943e+00
    2.2757583687541740e+00 -1.6808055497699133e+00
    2.5524587156940091e+00 -2.0691741061306272e+00
    2.7622913584186910e+00 -2.3338068924423836e+00
    2.8846157791272837e+00 -2.4816596338242300e+00
    3.0053894423548582e+00 -2.6243414681769073e+00
    3.1479056309580100e+00 -2.7894064202514319e+00
    3.2788627726586856e+00 -2.9385600445005613e+00
    3.4090039430556329e+00 -3.0848377897047605e+00
    3.4271717516130931e+00 -3.1051233541964351e+00
    3.4741242653661786e+00 -3.1574088695053071e+00
    3.6580941850363113e+00 -3.3605213060291503e+00
    3.6523610456709004e+00 -3.3542300318447484e+00
    3.7111183115974526e+00 -3.4186009916650870e+00
    3.7732283717264008e+00 -3.4863995109303687e+00
    3.6075789968968897e+00 -3.3050078552216666e+00
    3.6754804003922477e+00 -3.3795861858305156e+00
    3.5284683434405815e+00 -3.2176859984643285e+00
    3.4000462769372248e+00 -3.0748244591432292e+00
    3.3107529873109214e+00 -2.9745699350229682e+00
    3.3189007624147937e+00 -2.9837522983280262e+00
    3.1823710983958953e+00 -2.8288734953202224e+00
    3.0643436204301762e+00 -2.6930122195814143e+00
    2.9802192472049183e+00 -2.5948388620824869e+00
    2.8537410848857609e+00 -2.4446915212457543e+00
    2.6640108624709034e+00 -2.2119136473811709e+00
    2.4681323763545104e+00 -1.9571978199030018e+00
    2.2521263117717161e+00 -1.6437679279747559e+00
    2.0580870113641030e+00 -1.2717996314264008e+00
    2.0184565540556272e+00 -8.7306031033766540e-01
    2.6570435517267748e+00 -4.5389607938333970e-01
    2.1264449376544925e+00 -7.0205489245984232e-01
    2.0052172779388502e+00 -1.0748864567015830e+00
    2.1937942303368314e+00 -1.5476556772221968e+00
    2.4619919160876664e+00 -1.9488755083308260e+00
    2.6853925823291838e+00 -2.2387059620427308e+00
    2.8000212603897916e+00 -2.3798217164042268e+00
    2.9720058558251368e+00 -2.5851865803404630e+00
    3.0860307212646139e+00 -2.7181308456580333e+00
    3.2146012203661321e+00 -2.8656388999505102e+00
    3.3230016038365364e+00 -2.9883711477980186e+00
    3.3564720860189969e+00 -3.0260031653478419e+00
    3.3823772986578828e+00 -3.0550504633038944e+00
    3.4503680349494079e+00 -3.1309791284884532e+00
    3.4984622695057928e+00 -3.1844348007142491e+00
    3.5234050851957677e+00 -3.2120803721981055e+00
    3.5133538541544427e+00 -3.2009462323404292e+00
    3.4550738035853050e+00 -3.1362184651899154e+00
    3.3780105099354669e+00 -3.0501587185083503e+00
    3.3522225227713127e+00 -3.0212316874233460e+00
    3.3736636120158043e+00 -3.0452873782515733e+00
    3.3067058056266223e+00 -2.9700061681953565e+00
    3.2293123951354086e+00 -2.8823764491783650e+00
    3.1018769395498484e+00 -2.7364384221274261e+00
    2.9913065992243051e+00 -2.6078487827178516e+00
    2.9296202664264368e+00 -2.5351692908627088e+00
    2.7461745586057216e+00 -2.3140275944043722e+00
    2.6071855726512689e+00 -2.1398667561227525e+00
    2.4066784215546448e+00 -1.8726860985673450e+00
    2.1744249232262747e+00 -1.5138632985827809e+00
    2.0181466875412948e+00 -1.1440882063172388e+00
    2.0538508648990983e+00 -7.9331069872820714e-01
    2.8514197380963466e+00 -4.0951666364805878e-01
    2.4187981796334883e+00 -5.2921811503902416e-01
    2.0007104925305046e+00 -9.7369781333532279e-01
    2.0859855739855524e+00 -1.3393607233809059e+00
    2.2985443175743221e+00 -1.7156876378864716e+00
    2.5214686430069024e+00 -2.0284914637149498e+00
    2.7037805355832285e+00 -2.2616195111105717e+00
    2.8631019580905606e+00 -2.4559230821433196e+00
    3.0612916669804706e+00 -2.6894713887749888e+00
    3.1788621428216093e+00 -2.8248626278986979e+00
    3.2671846270545717e+00 -2.9253445524707415e+00
    3.3189007624147937e+00 -2.9837522983280262e+00
    3.3354134572391541e+00 -3.0023399114391154e+00
    3.4598021373352270e+00 -3.1414809308707241e+00
    3.3867641228358405e+00 -3.0599627600713166e+00
    3.3955984635854022e+00 -3.0698496067701968e+00
    3.3312578235609309e+00 -2.9976648241187847e+00
    3.4135141018964004e+00 -3.0898765797530672e+00
    3.3189007624147937e+00 -2.9837522983280262e+00
    3.2906922800956333e+00 -2.9519309710367003e+00
    3.3026762645142780e+00 -2.9654605112791597e+00
    3.2788627726586856e+00 -2.9385600445005613e+00
    3.2256117129009598e+00 -2.8781685438255131e+00
    3.0797759769620310e+00 -2.7108939735503097e+00
    2.9941031063461137e+00 -2.6111266641318562e+00
    2.8821938431507550e+00 -2.4787675520617714e+00
    2.6799784727481444e+00 -2.2319371909086230e+00
    2.5242140720674513e+00 -2.0321162375409778e+00
    2.3122184683852365e+00 -1.7362717643386476e+00
    2.1044130901471645e+00 -1.3795268980852522e+00
    2.0000177039109417e+00 -1.0042164628332639e+00
    2.2625988296583666e+00 -6.0230190444482179e-01
    2.9505200817555313e+00 -3.9064389301223307e-01
    2.7284983342926608e+00 -4.3625359061621782e-01
    2.0586654839393503e+00 -7.8535345249860222e-01
    2.0147784360671701e+00 -1.1291801725840689e+00
    2.2043346264664665e+00 -1.5656031624721161e+00
    2.4143543357372232e+00 -1.8833995533478871e+00
    2.6024213456770404e+00 -2.1337665058664768e+00
    2.7602554374129378e+00 -2.3313125167041671e+00
    2.9638784372686988e+00 -2.5756228327232620e+00
    3.0674069909315671e+00 -2.6965647993210466e+00
    3.1311781573858233e+00 -2.7701924006717777e+00
    3.2146012203661321e+00 -2.8656388999505102e+00
    3.2986642429430799e+00 -2.9609328407904227e+00
    3.3693364617062307e+00 -3.0404362965803493e+00
    3.3736636120158043e+00 -3.0452873782515733e+00
    3.3911711286014037e+00 -3.0648957577429798e+00
    3.3354134572391541e+00 -3.0023399114391154e+00
    3.3823772986578828e+00 -3.0550504633038944e+00
    3.3148179317742752e+00 -2.9791519364389276e+00
    3.2594817878921862e+00 -2.9166190472303155e+00
    3.1965497249391333e+00 -2.8450637523792062e+00
    3.1479056309580100e+00 -2.7894064202514319e+00
    3.1018769395498484e+00 -2.7364384221274261e+00
    3.0197272439427763e+00 -2.6410966470164312e+00
    2.9322015340082723e+00 -2.5382255074192224e+00
    2.7521729413679963e+00 -2.3213980461973533e+00
    2.6184540890606187e+00 -2.1542568985174739e+00
    2.4055922093353543e+00 -1.8711661140215814e+00
    2.2030740690079749e+00 -1.5634719199411435e+00
    2.0292387531539551e+00 -1.1862366231620876e+00
    2.0091041180510576e+00 -9.0902803433838875e-01
    2.6710572621661397e+00 -4.5029604896545583e-01
    3.3312578235609309e+00 -3.3359299944214654e-01
    2.9219289517137179e+00 -3.9587424507089086e-01
    2.4619919160876669e+00 -5.1311640775684053e-01
    2.0066042518400726e+00 -9.2196851739524244e-01
    2.0446556216436740e+00 -1.2348228761287041e+00
    2.2335128686039112e+00 -1.6138931695718586e+00
    2.4278140263681820e+00 -1.9020714097184663e+00
    2.6249905184420483e+00 -2.1625798464696486e+00
    2.8286115247421333e+00 -2.4144361486087829e+00
    2.9270477770620729e+00 -2.5321221162579053e+00
    3.0139610752781767e+00 -2.6343626116596912e+00
    3.0797759769620310e+00 -2.7108939735503097e+00
    3.1823710983958953e+00 -2.8288734953202224e+00
    3.2827889718183849e+00 -2.9429995943707037e+00
    3.2788627726586856e+00 -2.9385600445005613e+00
    3.2671846270545717e+00 -2.9253445524707415e+00
    3.2330285027734003e+00 -2.8866002031774847e+00
    3.2827889718183849e+00 -2.9429995943707037e+00
    3.2330285027734003e+00 -2.8866002031774847e+00
    3.1649664485040452e+00 -2.8089632098364095e+00
    3.0735682486990705e+00 -2.7037054776774996e+00
    3.0197272439427763e+00 -2.6410966470164312e+00
    2.9829763908130658e+00 -2.5980762113533156e+00
    2.8870457243092638e+00 -2.4845599669511422e+00
    2.7622913584186910e+00 -2.3338068924423836e+00
    2.6433411239418683e+00 -2.1858540346088717e+00
    2.4463735178972104e+00 -1.9275913637512663e+00
    2.2370102945969559e+00 -1.6195578037460709e+00
    2.0544053042196446e+00 -1.2620329919329656e+00
    2.0021455925240450e+00 -9.5473983374218141e-01
    2.2528636831331141e+00 -6.0792562781880954e-01
    3.1929834660621865e+00 -3.5198948167249350e-01
    3.6754804003922468e+00 -2.9589421456173209e-01
    3.2633250220506422e+00 -3.4235162924177848e-01
    2.8422087438651453e+00 -4.1138280836869984e-01
    2.1564184767748791e+00 -6.7505274055561437e-01
    2.0000284051695298e+00 -1.0053438715466474e+00
    2.0889084650144905e+00 -1.3459250334188737e+00
    2.2894230457160822e+00 -1.7018151672223334e+00
    2.4706097631204358e+00 -1.9605483926697653e+00
    2.7019177390168849e+00 -2.2593034446028990e+00
    2.7851001541873059e+00 -2.3616711826390535e+00
    2.8631019580905606e+00 -2.4559230821433196e+00
    2.9585072428187367e+00 -2.5692954905376744e+00
    3.0491967170379564e+00 -2.6754242162397555e+00
    3.1411752124134553e+00 -2.7816802652424344e+00
    3.1445337963805047e+00 -2.7855365298652552e+00
    3.0582510648525671e+00 -2.6859422395661676e+00
    3.0923330362047978e+00 -2.7254166619229947e+00
    3.1083006686269075e+00 -2.7438491456294187e+00
    3.1378297980313676e+00 -2.7778375435026641e+00
    3.0372792758672498e+00 -2.6615597357108802e+00
    2.9747340318344739e+00 -2.5883941000702775e+00
    2.9373905870999426e+00 -2.5443652546885338e+00
    2.8445004053618574e+00 -2.4335837970136511e+00
    2.7246339347837076e+00 -2.2874696681087343e+00
    2.5883575354864763e+00 -2.1157009420498154e+00
    2.4607728319377493e+00 -1.9472202409246540e+00
    2.2877885177488508e+00 -1.6993166886392588e+00
    2.1223644799735966e+00 -1.4162987651773316e+00
    2.0011914590015771e+00 -1.0351183872086700e+00
    2.0765434654606785e+00 -7.5897226802111195e-01
    2.8968464048596960e+00 -4.0060176089644606e-01
    3.4837883920953998e+00 -3.1564197774104186e-01
    3.5541691783566920e+00 -3.0806122752095871e-01
    3.1445337963805033e+00 -3.5899726651524966e-01
    2.8678282062098179e+00 -4.0624214421766003e-01
    2.7582256625380066e+00 -4.2940119010058725e-01
    2.0677353378988896e+00 -7.7141318356396171e-01
    2.0076540136283874e+00 -1.0913978901575918e+00
    2.1064582716784828e+00 -1.3838219557562430e+00
    2.2695040051924562e+00 -1.6710934119579797e+00
    2.4986867833986830e+00 -1.9982485328105597e+00
    2.6233496921493713e+00 -2.1604922008837462e+00
    2.7075224015892183e+00 -2.2662684000959965e+00
    2.7808958353555369e+00 -2.3565459519240051e+00
    2.8773738395316508e+00 -2.4730079787727850e+00
    2.9747340318344739e+00 -2.5883941000702775e+00
    3.0313858684728645e+00 -2.6546947212825480e+00
    3.0025527018009477e+00 -2.6210221621331136e+00
    3.0025527018009477e+00 -2.6210221621331136e+00
    3.0053894423548582e+00 -2.6243414681769073e+00
    2.9941031063461137e+00 -2.6111266641318562e+00
    2.9665781094928625e+00 -2.5788009989672882e+00
    2.8607503429983709e+00 -2.4531034498025304e+00
    2.8000212603897916e+00 -2.3798217164042268e+00
    2.6675240953086496e+00 -2.2163271725958542e+00
    2.6008418330775207e+00 -2.1317418895518978e+00
    2.4358458499397155e+00 -1.9131468106118386e+00
    2.2821245765002858e+00 -1.6906286133344333e+00
    2.1292125318142006e+00 -1.4298274337063666e+00
    2.0057180094236187e+00 -1.0785305537349446e+00
    2.0312569260391262e+00 -8.3814275966439122e-01
    2.6553139315560803e+00 -4.5434544130412591e-01
    2.8993170044199847e+00 -4.0013014478951825e-01
    3.6185975565565203e+00 -3.0146521018156708e-01
    3.6297327491139275e+00 -3.0035656689722540e-01
    3.1581014591912657e+00 -3.5700277364770827e-01
    2.8537410848857609e+00 -4.0904956364000672e-01
    2.6282857145202523e+00 -4.6151665001112985e-01
    2.6908534350809639e+00 -4.4533058252391827e-01
    2.0439114863073171e+00 -8.1125799526643871e-01
    2.0035122764638404e+00 -1.0610466137345669e+00
    2.0831204369225640e+00 -1.3328464843254890e+00
    2.2765479829006967e+00 -1.6820273175204588e+00
    2.4583435935326388e+00 -1.9439188191216015e+00
    2.5424067076409456e+00 -2.0560332505270256e+00
    2.6266358533244607e+00 -2.1646721282096117e+00
    2.7112861191155737e+00 -2.2709397900923149e+00
    2.7957250379476082e+00 -2.3746017994124426e+00
    2.8399244144564064e+00 -2.4280756284048044e+00
    2.8376473819267996e+00 -2.4253328394757245e+00
    2.8108796521527877e+00 -2.3929929156476049e+00
    2.8174767559126463e+00 -2.4009801919951248e+00
    2.7725641274258477e+00 -2.3463747468285505e+00
    2.7767172374795077e+00 -2.3514472201825063e+00
    2.7501674785483670e+00 -2.3189350464281602e+00
    2.6366035425791154e+00 -2.1773242158072694e+00
    2.5187371816720199e+00 -2.0248809993469870e+00
    2.3885562360507619e+00 -1.8471948226625390e+00
    2.2273133965410441e+00 -1.6037905999778010e+00
    2.1183680057084180e+00 -1.4082839196434644e+00
    2.0066042518400726e+00 -1.0846357344448303e+00
    2.0329234020155234e+00 -8.3426842556766079e-01
    2.3885562360507615e+00 -5.4136141338822308e-01
    2.7978698136447049e+00 -4.2066149231796968e-01
    3.0053894423548577e+00 -3.8104797417795111e-01
    3.6297327491139275e+00 -3.0035656689722540e-01
    3.5133538541544413e+00 -3.1240762181401349e-01
    3.3736636120158021e+00 -3.2837623376423097e-01
    2.9665781094928616e+00 -3.8777711052557462e-01
    2.8263704567661208e+00 -4.1464004176400598e-01
    2.6622616705316453e+00 -4.5254714511702021e-01
    2.6382809395114601e+00 -4.5883146774112349e-01
    2.0674209939003361e+00 -7.7187583250528680e-01
    2.0002928437629892e+00 -1.0172597267159327e+00
    2.0765434654606785e+00 -1.3175711974395665e+00
    2.2120152139139626e+00 -1.5785039843470186e+00
    2.2985443175743221e+00 -1.7156876378864716e+00
    2.4199157674963820e+00 -1.8911319293814643e+00
    2.5173766584657886e+00 -2.0230811014037826e+00
    2.6008418330775207e+00 -2.1317418895518978e+00
    2.6282857145202532e+00 -2.1667690645091233e+00
    2.6399629896680139e+00 -2.1815795140426282e+00
    2.6366035425791154e+00 -2.1773242158072694e+00
    2.6152125761255358e+00 -2.1501228781553845e+00
    2.6184540890606187e+00 -2.1542568985174739e+00
    2.5868157350738334e+00 -2.1137150732875392e+00
    2.5297472274393957e+00 -2.0394091252905535e+00
    2.4289531842409526e+00 -1.9036452164850552e+00
    2.3236963064683467e+00 -1.7533641134361440e+00
    2.2024458616196765e+00 -1.5624082984673666e+00
    2.0566549390838151e+00 -1.2680301700157717e+00
    2.0013516480102043e+00 -1.0374468009881790e+00
    2.0563709357996749e+00 -7.8909269009087113e-01
    2.3802747240233142e+00 -5.4482585548471929e-01
    2.7643334531498840e+00 -4.2802582500385300e-01
    2.9452411577563566e+00 -3.9159728156423934e-01
    3.1018769395498484e+00 -3.6543851742242256e-01
    3.7860800548534526e+00 -2.8568177693003616e-01
    3.8803906287624210e+00 -2.7755949799001889e-01
    3.6580941850363113e+00 -2.9757287900716134e-01
    3.2906922800956320e+00 -3.3876130905893326e-01
    2.9969095892216524e+00 -3.8249477225690093e-01
    2.9042830092085667e+00 -3.9918616395854073e-01
    2.9017958585610111e+00 -3.9965827953813643e-01
    2.6890279209692598e+00 -4.4578274931075246e-01
    2.1362998851754749e+00 -6.9272445084511902e-01
    2.0007104925305046e+00 -9.7369781333532279e-01
    2.0186125116486648e+00 -1.1460509743553711e+00
    2.0856242868389669e+00 -1.3385437218197915e+00
    2.1854047080216534e+00 -1.5331548877313199e+00
    2.2877885177488508e+00 -1.6993166886392588e+00
    2.3534321740080557e+00 -1.7969263331416347e+00
    2.3959307245363903e+00 -1.8576023906363486e+00
    2.4210360224778298e+00 -1.8926865062119809e+00
    2.4066784215546448e+00 -1.8726860985673450e+00
    2.3980600640519243e+00 -1.8605986359516473e+00
    2.3701372419266571e+00 -1.8209834237411260e+00
    2.3602316380849793e+00 -1.8067523535298482e+00
    2.2935413549296704e+00 -1.7080932110345795e+00
    2.2205671159312779e+00 -1.5927040997016209e+00
    2.1140244663686776e+00 -1.3994664069088580e+00
    2.0269113509298737e+00 -1.1780533854492843e+00
    2.0012702873680217e+00 -9.6498839382486101e-01
    2.0758695514415417e+00 -7.5989053706345355e-01
    2.7422054699854046e+00 -4.3306077969194473e-01
    2.7402297969387281e+00 -4.3351742089016632e-01
    2.9322015340082719e+00 -3.9397602658904979e-01
    3.1718864457343492e+00 -3.5500215760112352e-01
    3.4503680349494057e+00 -3.1938890646095486e-01
    4.1382322285059043e+00 -2.5769636878774499e-01
    3.9016521355915978e+00 -2.7579700930409057e-01
    3.9088267471027236e+00 -2.7520771767820018e-01
    3.5083654856244739e+00 -3.1294816954518451e-01
    3.2001305386844190e+00 -3.5098205908151692e-01
    3.0643436204301762e+00 -3.7133140084876193e-01
    2.9720058558251363e+00 -3.8681927548467415e-01
    3.1083006686269075e+00 -3.6445152299748873e-01
    2.8725853976752109e+00 -4.0530447546441267e-01
    2.2342092864574545e+00 -6.1918619215146298e-01
    2.0256008783772401e+00 -8.5228648459070422e-01
    2.0024140306284255e+00 -9.5205940586681104e-01
    2.0222173518033233e+00 -1.1605769149479943e+00
    2.0492655327550193e+00 -1.2479538489792839e+00
    2.1148850824486112e+00 -1.4012225988060645e+00
    2.1585313789911957e+00 -1.4852391227672941e+00
    2.1732957198030567e+00 -1.5118578920369090e+00
    2.1865874494184641e+00 -1.5352113284416313e+00
    2.1590625554710146e+00 -1.4862102415500338e+00
    2.1564184767748791e+00 -1.4813657362192649e+00
    2.1081119858831143e+00 -1.3872736939359849e+00
    2.0607156748485180e+00 -1.2786263878723485e+00
    2.0265333964279018e+00 -1.1766968108291043e+00
    2.0002739518134289e+00 -1.0166890324504723e+00
    2.0187691527501501e+00 -8.7206297201549265e-01
    2.2664180827253348e+00 -6.0013987940889657e-01
    2.9692872320923533e+00 -3.8729833462074176e-01
    2.9168446987087022e+00 -3.9682178930539147e-01
    3.0828974376604386e+00 -3.6839111036279015e-01
    3.1858942439964388e+00 -3.5299529491685649e-01
    3.5805302151999334e+00 -3.0532431568605323e-01
    3.7990812154456619e+00 -2.8453146830967513e-01
    4.3253416361331380e+00 -2.4508247138818903e-01
    4.6285041849724653e+00 -2.2720567527915331e-01
    4.3053671640687190e+00 -2.4636603126788742e-01
    4.1382322285059043e+00 -2.5769636878774499e-01
    3.8056387286744471e+00 -2.8395509167669086e-01
    3.6872296068629900e+00 -2.9477151134809315e-01
    3.7232624723695125e+00 -2.9138575870717925e-01
    3.6580941850363113e+00 -2.9757287900716134e-01
    3.4135141018963995e+00 -3.2363752214333324e-01
    3.1823710983958953e+00 -3.5349760307567307e-01
    2.8241364793619965e+00 -4.1510449233820096e-01
    2.3245932317735454e+00 -5.6990027617674022e-01
    2.0892779200545690e+00 -7.4252878673468137e-01
    2.0160538178902603e+00 -8.8106924215232141e-01
    2.0028165742470661e+00 -9.4831819840927001e-01
    2.0045857110295850e+00 -1.0700495394359888e+00
    2.0039243473319703e+00 -1.0646375073903933e+00
    2.0070716695692234e+00 -1.0877033564117082e+00
    2.0051360792838477e+00 -1.0742804800651191e+00
    2.0010779625166415e+00 -1.0333757444581029e+00
    2.0000095207114521e+00 -1.0030903290412556e+00
    2.0175351363485383e+00 -8.7605733269776653e-01
    2.0388932285323338e+00 -8.2127648700488964e-01
    2.1842271635059540e+00 -6.5312374650696980e-01
    2.5868157350738330e+00 -4.7310066178629429e-01
    3.1445337963805033e+00 -3.5899726651524966e-01
    3.3650289172553274e+00 -3.2942358825304607e-01
    3.6297327491139275e+00 -3.0035656689722540e-01
    3.8056387286744471e+00 -2.8395509167669086e-01
    3.8255433310324491e+00 -2.8222100871291278e-01
    4.0622883422612777e+00 -2.6322261067667746e-01
    4.3766355099514991e+00 -2.4185054571120487e-01
    4.6666301319542400e+00 -2.2515017747437008e-01</input_scale>
  <output_scale>
    5.2631578947368418e-01 4.9999999999999994e-01</output_scale>
  <inv_output_scale>
    1.8999999999999999e+00 -9.4999999999999996e-01</inv_output_scale>
  <weights>
    <_>
      1.7990298037973809e-01 -5.2920740050748469e-02
      -1.1286752629939237e-01 -5.6671208151451866e-02
      -5.4675612253922451e-02 7.4966305169701583e-03
      -3.1935697905219211e-02 4.9700811391918127e-02
      3.8963134439010734e-02 4.8999194108823698e-03
      6.2916580588431815e-03 1.4723077421307936e-02
      -2.5967708412919649e-01 -1.8469871564573120e-01
      -9.8930955050212419e-02 -4.6154260461339518e-02
      2.5900597530638803e-01 -5.0352396394307788e-02
      -1.0905388333676012e-01 -2.4601724140149597e-01
      -6.5732608392706449e-02 -1.4081710039931743e-02
      1.8121237776251806e-01 -1.2086591610556062e-01
      -1.5550874827609051e-01 -8.6708764822699971e-02
      -8.4136435866705411e-02 -3.5036880288712019e-03
      1.8161027741641905e-01 -1.5390025860810772e-01
      -1.8416882165537376e-03 1.9166146329107031e-01
      -9.2840416699009401e-03 9.0528752339713137e-02
      -7.3677471486396390e-02 -7.3394573992688117e-02
      1.3790598179400146e-01 -1.4710483390776274e-02
      -1.2949002367321508e-01 -5.3600053839385535e-02
      1.7697291447989405e-01 -2.3321236212953705e-01
      8.0322448809667102e-02 -1.6109602955821661e-01
      -3.7629378520402329e-01 -2.0183842888502732e-01
      1.4633406783929978e-01 7.9452976661096714e-02
      -2.7688374422505396e-01 -1.4414214151269630e-01
      -5.6108549633110583e-01 -1.8610312329482945e-01
      1.2746172147263266e-01 1.9014367020562582e-03
      -5.8276222956570323e-01 1.0265477796287556e-01
      1.9688945342445854e-01 1.8384200598739947e-01
      1.1332554336280953e-02 -9.5968280693180763e-01
      -7.3068038081195230e-01 -1.5589124867949483e-01
      -3.2694482724826252e-01 1.2605077576387200e-01
      4.9802077531255068e-01 -8.0518824704226677e-01
      1.1269125848729555e-01 1.6050496290676963e-01
      -1.9544035368736054e-01 3.6720703538450200e-01
      -4.6313220205145550e-01 -7.9931109831515268e-01
      2.0237455171749591e-01 -9.4843637726031405e-01
      -9.1763691545262385e-02 -5.3090029829897589e-01
      1.1166798344819362e+00 1.2143178913087592e-01
      -1.7944918163343457e-01 7.5701521245489262e-02
      4.1676056168981561e-02 -1.4647643144216940e-01
      -6.5130947759187902e-02 8.2413396707973652e-02
      -4.0607421583696163e-01 -2.3483388378867853e-01
      -2.6807997780572018e-01 -6.9129584787535836e-02
      3.2009501987897443e-01 -6.0871287246248051e-01
      9.1980954426855643e-01 1.3563391433626429e-01
      -5.4536838192460280e-01 -5.7065304142599416e-01
      1.2786990740590640e-01 1.0807305711060331e+00
      5.1378106769137133e-01 4.4420844773479845e-01
      -1.4412096528563137e-01 -4.6915077779022241e-01
      -2.3536625793778115e-01 6.8108948575813621e-01
      -5.6145162678262811e-04 -7.9380429868729577e-02
      -1.3814642615591047e-01 -3.3010445294805846e-01
      7.2394338875202802e-02 -7.4946652975056050e-01
      6.7663447167347390e-01 1.4161143557831321e-01
      5.2108332362768774e-02 -4.9308851944354587e-01
      1.0751653136882887e-01 1.1250713062526738e+00
      -7.3027498507596733e-01 -1.0469358959922337e+00
      -4.3807332185918191e-01 -5.3546379027018276e-01
      8.5544238435171527e-01 -1.0371725764390956e+00
      -9.1850648743471408e-01 -5.4092710571430203e-01
      -8.2098765154927089e-01 6.2076083973844780e-02
      -6.0165627263725624e-02 -1.3566873799100259e+00
      -6.0423449396726825e-01 9.9302386135840318e-02
      -4.2526150704471072e-01 8.8093225664457778e-02
      -1.1959489114811261e-01 -1.2141945282001145e+00
      -2.5850342735686216e-01 -2.7865216504393747e-02
      -5.0177526181735477e-01 -2.1723720560466862e-02
      -3.0738064914331603e-01 -8.6244457234202077e-01
      -3.1191503029375495e-01 9.6812676227697014e-02
      -5.5565112658327553e-01 -2.3982969411356114e-01
      -3.1320718066731262e-01 -2.2362202030916595e-01
      2.1373989407986453e-02 3.8970518675633334e-04
      1.1178138222979039e-02 1.3255863975564189e-01
      1.3949733716604148e-02 -4.9552930411069784e-01
      1.0636431568722005e-01 1.0334027196078760e-01
      -2.1717593915847413e-01 -5.0668691074769345e-02
      1.0067967312504528e-01 1.6228651831915400e-01
      -2.4771022708925045e-01 -1.8636403237861376e-01
      -2.5126953120001427e-01 -7.2426462553354304e-02
      2.2244803614363429e-01 6.5908858042155138e-01
      -1.0487400887903600e-01 -8.9304816752671393e-02
      -4.4498984597962322e-03 4.9832722466564644e-02
      5.4632276268541967e-02 -1.9530442677705107e-01
      6.5118901987754566e-02 1.4271618042319947e-01
      1.1045281394603179e-02 1.0509693156004245e-01
      -1.2122498170665091e-01 -7.9099989313793112e-02
      -9.5954565408435475e-03 -1.8109400352118174e-01
      1.5909915042592451e-02 1.1220774492217109e-01
      -3.0422462618626599e-02 -2.5016022478681569e-02
      9.4673691740569763e-02 -8.1574132329434265e-02
      4.4796667008300062e-03 9.8384612845493491e-03
      3.8062490722724829e-02 -9.7705359097873478e-04
      1.0706001258619235e-01 -1.9839363687320130e-01
      -6.0546937437639572e-02 -5.5770182123052375e-02
      1.0339136160933347e-01 1.6452736404931882e-02
      1.5323947842153016e-01 -4.0733402465457501e-02
      -9.3123649596628055e-02 -5.5280045688096288e-02
      -2.8387201731178174e-02 -1.9331706028547751e-03
      5.1833648813956554e-03 -2.0424373530030977e-02
      -5.5638562724132255e-03 -1.5797735073025359e-03
      -3.3397564778887848e-02 3.6733522031143148e-02
      1.1392297746306979e-01 6.9707867422106357e-02
      6.8868057524557671e-03 1.6569885616288589e-02
      6.0311011687249989e-03 -6.3939457328044597e-02
      8.4287498361404797e-02 -2.7866341649347828e-02
      -8.6722913969278143e-02 -2.8433405029555794e-02
      8.4443230891862148e-02 6.4854439432582194e-03
      -8.0106465335057775e-02 -1.2399931787352218e-01
      -7.7149360792936647e-02 1.4840737004152894e-03
      7.2637936851371612e-02 -1.7958215006144584e-01
      -7.2105894542885046e-02 -1.4632250637533051e-01
      -1.9028533745432186e-01 -7.0745667045310949e-03
      1.2331365287481798e-01 -3.6170131408792200e-01
      3.6178936961043927e-02 1.5976738435824414e-01
      -4.1457383159408567e-01 -4.7136241738208587e-02
      -1.6672202470495306e-01 7.8015722881478400e-02
      1.8156137971809574e-01 6.5473452355401265e-02
      1.8879567443791920e-01 3.0190272107069711e-02
      -8.2574892443304668e-02 -4.6799934376312519e-01
      -1.6539376157819480e-01 -2.4200393555016045e-01
      -8.9119053223320743e-01 -1.7544924392785904e-01
      1.4316277755443552e-01 -2.9078058886888697e-01
      -4.0833870579524989e-01 -1.3649600257195318e-01
      -6.1660646924633478e-01 -1.8515310106020172e-01
      1.3166051503351123e-01 -4.4660926545463242e-01
      4.7657301474232278e-01 -9.1338852861648845e-01
      -3.2248720265320380e-01 -3.9537505156596880e-01
      5.6287626446789718e-01 -2.7701942928890338e-01
      4.3641339368730277e-02 -6.2849449736664231e-01
      -3.7498420916840081e-01 4.7429212555821346e-02
      2.8619650344967923e-01 -5.9907381456770870e-01
      6.9013419895833406e-01 -2.1962671197871997e-01
      1.0104487129260709e-01 1.5784375381778078e-02
      4.2866773088956610e-02 2.7001609237104979e-01
      -1.9505904869718230e-01 -6.2802252849588847e-02
      1.8092637913770204e-01 1.5697397704404614e-01
      -2.6034848712203945e-01 -3.2831886668500676e-01
      2.0061104755533893e-01 -6.2032139085984417e-01
      -1.2829945601737680e-01 6.0999273604822657e-02
      4.3167560450506298e-01 -8.4589275464968172e-01
      -2.6792244624036088e-01 -7.9114985822809902e-01
      -4.9444434225435957e-02 1.6721636059039278e-02
      7.4900171626032963e-01 -1.0315540874699392e+00
      -4.5901266999016643e-01 -2.4619139887345404e-01
      3.6224871078252209e-02 -9.2923405834493628e-02
      2.6138996801300723e-01 -6.2534324128360474e-01
      -5.0201711948651639e-01 -3.7638322138568669e-01
      -1.3676602476466052e-01 -3.6312099757679302e-02
      3.3591516568995056e-01 -6.1843937090634959e-01
      2.0220953047694687e-01 -3.2704352882792764e-01
      -3.6850628830949639e-01 -3.9405987194219882e-01
      2.3505791904978046e-01 1.1449666435505236e-01
      -4.2454492179550191e-02 -2.7611705663555525e-01
      5.5587236917702162e-02 -1.0706666396616994e-01
      3.0404908238219647e-01 -2.6046077238029593e-02
      3.6331475996265350e-01 -2.8452933903424465e-01
      4.0897574603386116e-01 -2.7707791644937058e-01
      3.6744200883163503e-01 -1.7687110978714657e-01
      6.2667323147849519e-01 -5.8011403183826937e-01
      2.8324617629228688e-01 -2.5208131149123475e-01
      6.0318206763408411e-01 6.7370415183765764e-01
      -6.8113829040085827e-01 4.1154894973580536e-01
      -6.3284808297205597e-01 -2.1981301496700778e-01
      -2.8792576038876461e-01 -1.4611521156296098e-01
      6.6296275572620877e-01 4.2697895145280257e-01
      -5.7141952547451935e-01 -3.1366364067803609e-01
      -1.7287820956323391e-01 1.2501472928246984e+00
      -4.5819276155364352e-01 3.6817514992668104e-01
      -3.8643728045437620e-01 1.0604803215838027e-01
      -2.0497139287327865e-01 -5.2293259065781150e-01
      1.1057134276748914e-01 3.0900015384791829e-01
      -7.9025395482003061e-02 -7.4816954303622105e-02
      -1.5753370130867667e-01 -5.4223662446687659e-01
      -8.6636675124419429e-03 -3.0457492446331869e-01
      -4.3602597239924695e-01 -4.0206777896150764e-01
      3.6774690725977549e-01 3.6286669446702258e-01
      -3.2242312284889046e-01 1.6416384665947062e-03
      -9.4403596008423282e-02 6.1986026224859873e-03
      7.5585979267173156e-02 -5.4954336506035628e-01
      -2.6480596908311915e-01 -1.3112025599314966e-01
      -1.4804060725993662e-01 -1.6145532719485398e-01
      2.3082143778479067e-01 4.7562425952592580e-02
      -8.4395712031520131e-02 2.7558261327951102e-04
      -2.3019447996152242e-02 -1.4559104754722408e-02
      2.4240946156899413e-02 -2.4373883835767973e-01
      -1.5799239951997168e-01 -1.2810804057486441e-01
      -8.4410008644119669e-02 -1.2804511083328307e-01
      1.0247088858476050e-01 -1.5246401375164303e-01
      2.1207559668471931e-02 -6.5613793481533234e-02
      -8.7023490845166418e-02 -6.5467856257368603e-02
      1.1422473776583214e-01 6.9027875869241404e-02
      7.7646540488774674e-02 -1.7738907974017282e-02
      -2.5370443330486312e-03 2.3789127193264599e-02
      -2.9429608727350062e-02 -1.2094772593085988e-02
      5.0810647648085613e-02 8.8576406465292426e-02
      2.9800733825309320e-02 6.0519240414790051e-02
      -3.9025606095317883e-02 6.2421125703736305e-03
      -9.4851654237312580e-02 -5.0048619098098197e-03
      -8.0179995851621902e-02 -3.4156589639018804e-02
      8.4847737638252430e-02 -1.7934204988487012e-01
      -9.2170883177698379e-02 1.9220970127341092e-01
      -1.0775065922054493e-01 4.2033541060101334e-02
      -1.1806255142676637e-01 -3.1665113533219569e-01
      1.6325117115050792e-02 -8.1247621749327772e-02
      -2.4799203986032514e-01 -1.2198506474311677e-01
      4.4511374264541430e-02 -2.0914440899926207e-01
      -2.9231728939028639e-01 -1.2042554736339059e-01
      2.4917744135930675e-01 -1.0490301270032987e-01
      2.8789238170287338e-02 -5.5648555290249269e-01
      2.7503766969517124e-01 5.2727952165393686e-02
      -4.4518137709398531e-01 -3.4864373608695598e-01
      2.7955565955123352e-01 6.7769054780324023e-01
      -2.0094390065374773e-01 -1.0213130928321348e+00
      -6.3231792570412537e-01 -6.6510249614358796e-01
      7.4257300159282469e-01 -3.0972766664702339e-01
      2.3972460581875699e-01 -3.7164252268619807e-01
      -2.2105258949841766e-01 -2.8846935557019576e-01
      2.7360266114771375e-01 -9.5131278596550906e-01
      1.5906798698121516e-01 -1.3506426493286980e-01
      -1.4720657938360374e-01 -1.6998030554017812e-01
      4.0182438913705631e-01 -9.8328792429509637e-01
      2.1228862605650473e-01 -4.8662726294997743e-01
      -2.0874954413882771e-01 -1.7936059893205548e-02
      4.8343964895078245e-01 -2.0947405392992255e-01
      -6.8902221665070873e-01 -6.3065957755448476e-01
      1.5868182565501043e-01 1.8604670480932545e-01
      6.2037622712242002e-01 -1.7599816946431793e-01
      -3.1911968805603413e-01 -3.7115684947418565e-01
      2.0858284584715009e-01 1.8808820188405129e-01
      5.0219955594406736e-02 -4.6787751786871623e-01
      3.0507085357758884e-01 -4.7331046351836786e-01
      1.4670251897142428e-01 5.7222103874991241e-03
      4.7046691085683123e-01 2.6026304260805599e-01
      4.2434362856295328e-03 -3.7790176116303065e-01
      1.5139129649685820e-01 4.4044427568740475e-02
      3.2149156598398665e-01 -3.3150450013140859e-01
      -1.4704993820119067e-01 1.1315591715950148e-01
      3.8187144937283451e-02 -3.3279263613993512e-02
      1.1918638916917045e-01 -2.8671066089699698e-01
      9.4037881052455169e-02 1.8142328779195432e-01
      -1.0064830523056175e-02 7.3717719539775600e-02
      -1.5103891283915294e-01 -2.2788435263923917e-01
      -3.3018104501103335e-01 -4.0006269139684622e-02
      -7.0892483520925420e-02 -5.9575620088497420e-02
      -2.5197500857932476e-01 -2.9164001030973846e-01
      -3.3809910489976491e-01 -4.0425517680407502e-02
      1.7206749795796092e-01 -5.7778682814710935e-02
      -8.3608636442249334e-02 7.7897657825777202e-03
      -3.1954514948012946e-01 3.8133824611300243e-02
      3.2784707729346563e-01 -3.4851126926583174e-02
      -2.0611407207365098e-01 -4.9137921129160178e-01
      -8.1873371716822529e-01 -5.0203649087869273e-01
      1.1141663455465046e-01 -2.3105209797878842e-01
      2.6757021087680377e-01 -5.4337261868510056e-01
      -1.8375534919877262e-01 5.8365084591775425e-02
      1.7438965187219459e-02 -3.3323375669897115e-01
      -6.9930044240537545e-02 5.5969835363455578e-01
      6.7329861006795755e-01 5.6936240550271533e-01
      1.2247179801632652e-01 -2.1860370127411874e-01
      -2.3607731766721451e-01 5.2716057169712216e-01
      2.0434423463605930e-01 3.4684479766379772e-01
      4.4079444524737943e-02 -3.5585084882659523e-01
      -2.2264904056933599e-02 6.6910845775329175e-01
      2.0068997982099060e-01 -2.8302424409325050e-01
      -5.6661271591896811e-01 -7.3494017671627521e-01
      4.2189075993547770e-01 -3.0265457238156585e-01
      1.1466188366398528e-01 2.1170897647721756e-01
      -4.8051872225302394e-01 -4.4006939198062622e-01
      -1.4971241489003831e-01 -6.4694766438297994e-03
      -5.4218784817543042e-01 3.0249294965515451e-03
      -4.7106437539206891e-01 -1.9559555524293568e-01
      7.8815755675299304e-02 -2.0479858670335319e-01
      -2.7930714384158406e-01 -3.6340637658266350e-01
      -3.7244421005158079e-01 -3.2275025951621111e-01
      3.2955891676451732e-01 -2.2292957278678621e-01
      -2.0823934862533983e-01 -1.7659833921878493e-01
      -1.7130605267983748e-01 -3.2280661821632173e-01
      3.7979188390141083e-01 -4.1435184821174853e-01
      7.7618739325922309e-02 -1.6822031865865825e-01
      -1.5884518486243374e-01 -3.7590919247997684e-01
      4.4175668619628888e-01 3.8664214993759161e-03
      -1.2511543987448728e-01 -3.5233400546554501e-02
      -1.1255390276159086e-01 -1.2367926736763783e-01
      2.5743786050995327e-02 -1.5250492320944412e-01
      -5.7678229097497459e-02 2.0588192125498448e-03
      -5.5773405463856784e-02 -7.2923812655008718e-02
      4.6518444390818994e-02 -1.5900123922418039e-01
      8.9682531256127337e-02 9.0439344495718099e-04
      -2.7766580649013777e-03 2.9508772291534840e-02
      -2.0823092236348102e-02 -1.4632719386251627e-02
      -8.7477744242789812e-02 -2.0938930704926667e-01
      -9.3489430938908893e-02 -9.8675467018700683e-02
      2.3600622601727492e-01 -1.0434534806466604e-01
      -2.4005581652554261e-01 -1.9452918156659535e-01
      -2.7084944768150981e-01 -1.4263342309231342e-01
      2.5901306487954084e-01 -3.3873949368324507e-01
      -1.9705898030710089e-01 -1.5964358356300257e-01
      -3.4404217782985291e-01 -2.4248151386989433e-01
      1.7845009371571161e-01 -3.0348130695192199e-01
      -1.5547085053580920e-01 -3.1137924107472861e-02
      3.5050904166125074e-01 -9.5339240885280604e-02
      -6.8533360149310406e-03 -4.8657778900806969e-01
      2.7298453037317549e-01 -1.5595008035694677e-01
      2.3063688259495638e-01 6.2777950767510513e-02
      9.9956608691613880e-02 -8.6199862956333073e-01
      3.7512977068877704e-04 -5.4795344797500189e-01
      -6.9378101236695877e-01 -5.7093639071949431e-01
      2.9974899161212348e-01 -4.5197182538646241e-01
      -4.7334937434633167e-01 -7.6939535343802568e-01
      -1.2906268386873310e-01 -4.5543615155669182e-01
      9.3766872165527770e-01 -8.5932089489756402e-01
      7.7083608191547703e-01 -3.0045109476256965e-01
      1.0215717524532257e-01 -1.3722285298852119e-01
      3.4425034414487382e-01 -6.2765700127706026e-01
      -1.2191487854657784e-01 -4.7043510656788778e-01
      -1.3326296255067568e-01 -1.0107984615636093e-01
      3.7533913124458329e-01 -4.6176226968500400e-01
      -4.0496198257188304e-01 -7.4328891730444907e-02
      2.2013681120206577e-01 -3.3802187814227364e-02
      2.0292141741107489e-01 -2.5797382116809930e-01
      1.7057676368455865e-01 8.3325155485502636e-02
      1.6752556229652674e-01 1.9348454523476868e-01
      4.5002703190135142e-02 -5.1783109528865290e-01
      5.0925689187906653e-01 -1.3246644203816968e-01
      9.0258418508096835e-02 1.3357107141132221e-01
      2.5860846148603073e-01 -9.3857127630267101e-01
      7.0981174549899523e-02 -9.5137697021703230e-02
      -1.2618413170778841e-02 -9.7706308964290133e-03
      8.8484819314762514e-02 -3.1122767152509517e-01
      -3.4841698967331786e-01 -1.6131703733031877e-01
      6.5880041806576764e-02 -1.6847677771614142e-01
      1.5559837283508038e-02 3.3511006203507610e-01
      -1.3116516732964021e-02 -3.3575322346807313e-01
      -1.5201960358922778e-01 -2.5538450990507150e-01
      2.8380500129587438e-01 5.2528028997016196e-01
      3.0756063843340270e-01 1.1486213550869501e-01
      -2.4784738083772379e-02 -1.6895561757428934e-01
      -1.6602558413805787e-01 6.1820456758362119e-01
      1.3631673296043612e-01 1.0199697971532531e-01
      -5.8377052508194999e-02 -7.9615333938060057e-02
      -1.1429255364958768e-01 -1.6849941524957135e-01
      1.9187325679552480e-01 1.7624458310347751e-01
      9.1800955877703969e-02 -7.3030136907240278e-02
      -9.1467967309666179e-02 -2.0129533493787691e-01
      2.7403840528770734e-01 1.3285946281263564e-01
      1.2289867095999475e-01 -5.7566057940904060e-02
      -1.9234367677178479e-01 -1.1606600378027150e-01
      -2.2901455714125515e-01 -3.6392258550508200e-01
      -9.2078208212318879e-02 -2.7482629478830162e-01
      -6.4038497847288559e-02 -1.1245048392051776e-01
      -1.7482267872783216e-01 -1.7563381276139456e-01
      1.5100085406718725e-01 4.4041050970925087e-03
      -2.5060122749681440e-01 1.6965579359052707e-01
      -4.6942708242204068e-01 -7.5226829781660709e-03
      5.8901174103900933e-01 2.0336686971667264e-01
      -5.8228529523931005e-01 -1.2507907097181556e-01
      -2.0996099301831492e-01 -1.8005344749072144e-01
      4.2019315850055960e-01 3.0183628231974922e-02
      -4.1296938673990841e-01 6.7362505752699045e-02
      -1.5979397818336785e-01 -2.0235088824948194e-01
      4.3510274861802846e-02 -2.1685112477216797e-01
      2.4911071077657534e-01 2.8840460229267917e-01
      -5.5837316821289945e-03 -6.4684864880801962e-01
      -2.2521205197055463e-01 -4.2608585938606489e-02
      4.9552212627201420e-01 -8.7661526890308594e-01
      2.9058394407323804e-02 -7.0928884843323137e-01
      -1.6620689107323069e-01 -3.2863864851022589e-01
      5.8898874967803116e-01 -3.2850441109956890e-01
      -5.0598433241594742e-01 -2.8983033042256379e-01
      -4.8979770060030792e-01 -2.9693612382089679e-01
      2.5631635540090708e-01 -4.6292696394973015e-01
      1.7327333350453497e-01 -4.4456629657739444e-01
      3.2248350764796950e-02 -1.9122554355155397e-01
      3.1052207862424253e-01 -2.5711062928988965e-01
      -5.9406222166552981e-02 -6.5063314452695531e-02
      1.4604207771577307e-01 -9.6537042659138469e-02
      2.9771672714326741e-01 -6.2513509371794418e-01
      -8.9963983868792202e-02 -1.3836414761312366e-01
      -5.2586478625194069e-02 -1.2935761408236368e-01
      2.5370204082390130e-01 7.7831625145680112e-03
      -2.4375247998799549e-02 -4.2531643565208860e-02
      -3.5473745050999261e-02 -1.0122135897122102e-01
      1.4937515735304027e-01 -1.6814500947037746e-02
      -2.4758771143580258e-02 -1.4392434728779560e-01
      -1.4274508825124696e-01 -2.1996137040755198e-01
      1.8162657238974697e-01 -5.6546622123422052e-01
      -3.2908296652561592e-01 -1.4054322236461603e-01
      -1.3477643122264496e-01 -1.5363424146833618e-01
      2.7003885627758728e-01 -5.4538746723668230e-01
      -1.9316933770533304e-01 -1.4223682047958228e-01
      -3.5405049423320090e-01 -2.3423350263226492e-01
      1.5976604363981609e-01 -6.3164616195841639e-01
      -1.3086304838709562e-01 -1.2348349965009880e-01
      3.0637309797892354e-01 -2.0673195666613245e-01
      1.9657103755739305e-01 -4.9003898118133060e-01
      -5.0697740426006610e-01 -3.2772217803638121e-01
      -3.6975575841948805e-01 -2.1119142954932127e-01
      4.2256646813659626e-01 -9.2681698253890155e-01
      -8.1860906436212955e-01 -5.0018790969529503e-01
      -5.2140652262782794e-01 -7.1798889399629862e-01
      5.2000296537364366e-01 -1.1111351669499780e+00
      2.3995350181194955e-01 -4.0692547830590514e-01
      -6.9887665096851612e-02 -5.5088202104987938e-01
      2.4692806264385431e-01 1.1408370067375094e-01
      1.6772847432554563e-01 -5.0916121881538945e-01
      2.7788395573857000e-01 -5.7745369844546118e-02
      4.6531498400199578e-01 -7.7572534039343177e-01
      2.9956432192161986e-01 5.9228892321935012e-02
      1.7901495832193798e-01 2.6632672394794554e-01
      3.6730510719748387e-02 -6.7858206999209514e-01
      7.0306998846915381e-02 2.9988138440253154e-01
      1.2744756793249937e-01 1.1347641163709007e-01
      -4.3272705801377702e-02 -5.9859089925833131e-01
      2.0728556919191224e-01 2.8493172090994573e-01
      2.4559323645270192e-01 1.3415844911614278e-01
      2.5098923279509966e-02 5.3541736437884224e-01
      3.1963626085581792e-01 8.2506904931735778e-02
      1.7490806722992977e-01 1.8515777793402538e-01
      -1.0099022339617653e-01 -6.8991728011739431e-02
      -4.0694176011389405e-01 2.1966294507488218e-01
      2.3253060467770228e-02 -4.1537802863507264e-02
      -1.4405674790901243e-01 -1.6444527219884630e-01
      -4.4130124433541157e-01 -1.6130236997178404e-01
      -3.7282431721714941e-03 -1.8388720049490004e-01
      1.1246615470295107e-01 -2.4779799746278050e-01
      -1.2401399674749918e-01 3.4592701160813621e-01
      2.3705623573697893e-01 9.7626607025175116e-02
      -2.1610317236516050e-01 -3.7876238467685797e-01
      -2.3838701669569826e-01 -1.5593858594557778e-02
      -8.2357936568004136e-02 -2.4858323392880557e-01
      1.4156554152365133e-01 2.0884325575230459e-01
      -2.9989417173226440e-01 -1.5784384449653616e-01
      -7.4791366085634928e-02 -8.7866448662623872e-02
      9.4002337298648569e-02 1.6940438325367477e-01
      -1.9078850367479178e-01 -6.4677869827392209e-02
      -5.0905161364682872e-02 5.4869328252181215e-02
      7.0633101584344174e-02 -1.4501489182338445e-01
      -3.0119198025916294e-01 7.8359290255226019e-02
      -4.4457561112942301e-02 -5.9745429529436477e-02
      8.8501690993752158e-02 -2.1840820211393747e-01
      -2.0535385197749517e-01 -8.1669213864058968e-02
      9.1264687915572185e-02 -5.1584721874539325e-03
      6.6366851922227230e-02 1.0941365994284552e-01
      -7.0636341096583059e-03 -1.9169600373205958e-01
      -1.6764219910886546e-01 -1.5128945786705214e-01
      3.2378560722914185e-01 8.1100474197995029e-02
      -3.1204103693957219e-01 -1.6284171807210970e-01
      -9.8311748958233872e-02 -4.1689486040950730e-03
      2.4992502887829721e-01 -1.9891201845155040e-02
      -5.6621647632089489e-01 -8.9896758377063304e-02
      -1.5393267154358280e-02 -2.2721639753644489e-02
      2.5772416288272559e-01 -4.6588140211884115e-02
      1.0335109748003067e-01 8.1292193649788111e-02
      7.3887261325554718e-02 -4.3852498930274632e-02
      3.2243537408823471e-02 -1.5626725140291099e-02
      -1.0291692398542240e-01 -3.5816895381243496e-01
      -4.9357932011608187e-02 -2.1469894000583209e-01
      3.0581701291106067e-01 4.3130562217601393e-01
      1.7876174051214608e-01 -1.5543109133400440e-01
      -7.9166048616837431e-02 1.3100307053597712e-01
      2.9406613010542398e-02 -3.5796580491378377e-02
      -1.1357917528531841e-01 -3.4119066797982345e-01
      -1.7113000945236725e-01 3.8067907990854993e-02
      4.8696188437583232e-01 -5.7167099008642142e-01
      6.8717911659395581e-01 1.5282469955426786e-01
      -1.4814645809738253e-01 -1.6985382737745475e-01
      -1.4346093939409763e-01 2.2198376204083875e-01
      -4.9514003807071072e-01 -5.5896709654947208e-01
      -5.0788135633312126e-01 -3.5681210976694500e-01
      2.6523188099573286e-01 -5.5762285305796766e-01
      1.2118970972113088e-01 -2.9425362836572094e-01
      -4.1135346557668338e-02 -3.3188515172568139e-01
      2.5082869624593201e-01 3.1685042040445832e-01
      -2.0965250659465673e-01 1.6928421983873734e-01
      3.1075871030179242e-01 2.1754771004477938e-01
      -5.9889312178341120e-02 -6.5052845180481578e-01
      4.6724310068663608e-02 5.1236099262033832e-02
      -3.6206563857140980e-02 -1.2324911749988825e-02
      4.5974377023024648e-02 6.0073142210769178e-03
      3.6557466815500615e-02 -4.4884305075716130e-01
      -2.4101810447004732e-01 -2.4818014997314264e-01
      4.1698869019808033e-01 -3.6898806525653266e-01
      -3.7126152396662876e-01 -2.1187987437007591e-01
      -3.5630783540116140e-01 -2.1505579090499718e-01
      2.5680156907453294e-01 -5.8811772647652438e-01
      -3.8869217369861953e-01 -1.8042998946695293e-01
      -4.1957861054981771e-01 -2.1024263258036369e-01
      2.4681432009908308e-01 -6.2782019589153037e-01
      -5.6973623499625781e-01 -2.7469806856188694e-01
      -4.8984614711992869e-01 -4.4743423106299968e-01
      4.3193148938947884e-01 -1.2599045141331757e+00
      -5.0485478365326575e-01 -6.0863044681957645e-01
      -5.9566528621369852e-01 -7.9114079626829970e-01
      3.3210159550934870e-01 -1.4953035830850600e-01
      -6.8386431793130409e-01 -9.6065686708224385e-01
      -3.3525068136994046e-01 -6.2972846089500467e-01
      7.6706254308430244e-01 3.6064529276368923e-01
      3.2939222307805527e-01 -2.3827231519658590e-01
      5.0248561165490591e-02 -1.7852943071449068e-01
      3.5045776343925489e-01 4.3766388141233764e-01
      -5.0014916702586099e-01 1.6467968418690346e-01
      3.3621832094547249e-01 -8.5609401347696373e-02
      -2.0609011554260731e-01 -3.3298821577442245e-01
      -3.4974157539023559e-01 -8.6549633074654367e-03
      1.8824593968785778e-02 -9.3460457509174338e-02
      -2.1474875767215290e-01 -2.1231064932733859e-01
      -2.8171325772688971e-01 1.1210816156996493e-01
      5.6976939292916647e-02 -1.8620487090933668e-02
      -1.6836659402187532e-01 1.2966960833592150e-01
      3.3370834994228099e-01 3.1785313379878995e-03
      1.6405539271313697e-02 -6.7168979188419395e-02
      -1.6529459051261908e-01 1.4177152906519250e-01
      -3.6555025972238092e-01 -9.2231063559055027e-02
      -1.2816198475274138e-01 -2.2399791276716396e-01
      -2.1280360692587600e-02 1.2892615082712480e-01
      -4.2064171519087823e-01 6.6964122135932183e-02
      1.8180635321465483e-02 7.6865744080432024e-03
      4.2039103360280803e-03 -3.9607773923213208e-01
      1.4478679313259854e-01 3.5959707314460582e-01
      2.4820852913459940e-01 -1.0838084267947351e-01
      1.0950338901905317e-01 1.2003630723610739e-01
      -2.2971549656309809e-02 -3.6891794285272221e-02
      2.8634661368939607e-02 -2.0447266894546054e-01
      2.0949720782112916e-01 2.2981679461759302e-01
      -9.3080396142967953e-02 -9.2058925843175446e-02
      6.4845208055836781e-02 -1.5042468978316359e-01
      2.0187818947068717e-01 -7.8570676108234098e-03
      -1.2404852592938252e-01 -8.3220291355161888e-02
      -2.0682499367810723e-02 2.8460651647510306e-02
      1.3078232389988059e-01 -3.6201408082317998e-01
      5.8314495113014780e-04 -2.6386017374683875e-02
      2.2530357202482088e-02 2.2553912983906943e-01
      -4.5712392061668826e-03 -3.2823207604995536e-01
      -1.0143705494327153e-01 -2.7897769532135862e-02
      -5.3961040104086727e-02 -6.7567893171422248e-03
      -3.5326724200783711e-03 -3.8382407660180369e-02
      -1.4064053149424358e-01 2.2667938051971585e-03
      6.4253967148450372e-02 1.8927002458554637e-02
      2.9796616326516780e-02 -1.0697894433159730e-01
      -1.5701549498997069e-01 3.0326704554664741e-01
      1.8966166029684711e-01 2.2161409181606020e-01
      1.7907049544522009e-02 -4.3475097652349770e-01
      -3.8613521788289196e-02 1.8832491006033272e-01
      1.4676263124906744e-01 1.5831945767575142e-01
      -9.5958140846781739e-02 -1.6945879390489049e-01
      3.5189732833041532e-01 3.9585293471129346e-01
      3.4543988346345832e-02 1.4756689283235985e-01
      -5.1420441490401599e-02 -7.5369575255712015e-02
      2.3466838129154974e-01 -5.0378934952257121e-02
      -4.3541032298762437e-03 -6.2649984573771855e-02
      2.3496394196298845e-01 2.1809955443520365e-02
      -2.4209910799382786e-01 -5.5093997437838341e-02
      1.5529522781330388e-01 5.2828724045217684e-02
      -2.4746457252960560e-01 1.1889349734622452e-02
      -2.7647824481593691e-01 -4.9667638656005764e-01
      3.1565618882716906e-01 -9.8593311732412453e-02
      1.7325327583139041e-01 -4.3278455769393048e-01
      -5.7860239630496260e-02 -1.6074589972013092e-01
      1.4538632844545143e-01 -3.9497083599104386e-02
      2.7205991704992233e-01 -1.3037315697084784e-01
      -2.4429455829481311e-01 -1.9326344636827761e-01
      6.9734141429388441e-02 1.3850786497106390e-01
      2.7260644272744317e-01 -3.5486189405952789e-01
      -6.7524851900986638e-01 -8.3591303483725965e-01
      -1.0209470558554617e-01 -3.7743147829320056e-01
      4.1397224438909735e-01 -5.3714453194615597e-01
      -7.4704072396207222e-01 1.7606926497392977e-01
      -4.5788605032628049e-01 1.3040867942935150e-01
      -4.6294689608703699e-01 -1.2422399267541391e+00
      -1.1543815658086820e-01 -3.3211265590348461e-02
      1.4162617209718878e-01 -1.8681332676826945e-01
      8.7797633880597623e-02 -6.9345802387693820e-02
      -8.5199871779201131e-02 2.3154515891536542e-01
      -2.8743996864299963e-03 7.1003850800653995e-02
      -1.3269519757622278e-01 -1.5714241431630044e-01
      -3.3835203487445481e-01 -4.7308822674226075e-01
      -3.4122263673375414e-01 -2.4440335710354488e-01
      5.6988030261178113e-01 -3.9799994564755048e-01
      -3.6513613185358701e-01 -6.5198563278071386e-02
      -2.9616913662444161e-01 -9.6068427428936870e-02
      1.7956115335788204e-02 -6.7788292435855560e-02
      -4.3239868905476035e-02 3.3413229206362233e-01
      7.8836679927715037e-02 1.7442800532116037e-01
      -4.7493846203208689e-01 -8.4315547700138671e-01
      6.7743464770357209e-01 2.6164727255490644e-01
      -4.8386729393654321e-01 -7.9945176283862562e-01
      -2.8025095421169571e-01 3.1261754543859088e-01
      -4.5235601094602207e-01 -3.1882522182905559e-01
      -4.5048500939828945e-01 -4.1667997695294778e-01
      4.2431359648929901e-01 -1.0789224361760272e+00
      -2.8721995788965832e-01 -5.6775697230520317e-01
      3.2679425741447954e-01 -2.5552726920782004e-02
      3.7542529353608983e-01 -2.4020838613192427e-02
      -1.5827865188538076e-01 -4.9436599955334962e-02
      1.8323175936612660e-01 -1.0623776900706060e-01
      9.7598554032600399e-02 -4.6087672872648749e-01
      -2.7619996508110023e-01 -1.0619178050386184e-01
      1.5023602661170402e-01 7.0202910222048179e-02
      9.0734687238630055e-02 -2.7280740251228502e-01
      -3.1485853184238366e-01 -2.0723957763303796e-01
      -4.0865406378617013e-02 -1.8024220893430597e-02
      -1.6300796600345910e-01 -1.8983230422396735e-01
      9.1178393850843129e-02 9.1804996485211496e-02
      -5.4480621338551513e-02 -9.3597038961983459e-02
      -6.7188824094265520e-02 1.1890473381576207e-01
      2.9885808979439092e-02 1.0034775286148913e-01
      -1.2356648389839447e-01 -2.0542395593186219e-01
      -4.3906121760047390e-01 6.9056502743769688e-01
      8.5571683867423642e-02 9.0268457281107911e-02
      -7.3828311945208974e-02 -1.0916849409743232e-01
      -1.5593803538013962e-01 2.3828517284065887e-01
      1.2616288537351183e-01 2.8418375276736052e-01
      -9.0714052153294256e-03 4.8011153938466222e-02
      -9.9309830162695248e-02 4.9525907307485822e-01
      2.4427263954901296e-01 2.1410801214157976e-01
      7.0530348341799373e-02 5.8096542641544756e-02
      -1.4274934429085762e-01 2.7212300137297963e-02
      1.6820358579256356e-01 9.1274155077969658e-03
      9.8984794994891837e-02 1.4691466528649408e-01
      -1.8204729527922450e-01 -8.1576578295770360e-03
      7.7406978515581204e-02 3.9309982029798227e-02
      1.4419558244912453e-01 1.1897354539203614e-01
      -1.1957267366859352e-01 -4.7083980585837008e-02
      6.4661570404843285e-02 -8.0685547174117980e-02
      8.8701172434567890e-02 1.1370863778382700e-01
      7.2402145164660444e-03 2.7760840694490924e-01
      1.2782753236507494e-01 -2.6380161188282278e-02
      6.9222031471284237e-02 1.3840730026008061e-01
      -2.7068147588429153e-02 1.9521262653439359e-01
      -1.1443779051008060e-01 -3.8178926359941384e-02
      9.4705935382198098e-02 -7.2177513134768612e-02
      1.5115828965709929e-01 1.5664807098937111e-01
      7.2045499596662829e-02 8.4566544102218061e-02
      2.0019704612873149e-01 2.1088400663091528e-01
      3.1897951754383293e-02 -2.7116223612783830e-01
      -1.5655453875644119e-02 2.1152519603154002e-01
      2.3108992468000807e-02 -3.1546882553620459e-03
      8.7502481381680999e-02 1.3665366819402763e-01
      1.6423829245524945e-02 2.4452648235238933e-02
      -7.9321428048608464e-02 -4.6211766221492506e-02
      2.4947387295924048e-01 3.1537873195854393e-01
      -1.3732568982370619e-01 1.1460002827809088e-01
      7.3215130762557382e-02 -3.8948630608140036e-02
      8.7198211792847799e-02 3.5049731058962801e-02
      2.8019582014165656e-01 1.0586782310959565e-02
      2.4866085389236631e-01 7.9786141118289838e-03
      9.8860323176916454e-02 5.6815574639938493e-01
      2.2516425819952537e-01 8.2239878463446200e-02
      4.6978681702947327e-02 -8.3174593138524336e-02
      -1.3790306869106983e-01 8.9050050880472673e-02
      2.5773201079713121e-01 1.4213639084181188e-02
      7.0438543447001845e-02 1.6797687173989266e-02
      -1.3632556932118170e-01 -4.5760949962186287e-01
      -3.5007823679923847e-02 -4.5161858985091887e-03
      2.8777795340576356e-01 -2.0791711844344710e-01
      -1.4897938590044989e-03 -1.0436112854796209e-01
      1.8148355668912849e-01 -4.8847634978998071e-02
      2.3710639165020622e-01 2.2708976971439246e-01
      1.6690591503405836e-01 -2.0414668053280427e-01
      9.2300722190009385e-02 1.7749223820813101e-01
      1.0350312345652651e-01 -2.2651667473670273e-01
      4.1561138766417294e-01 3.3573913551668488e-01
      -8.5333545392800358e-01 -3.5152919575484742e-01
      -9.3705317422672041e-01 -4.1110398325269504e-01
      2.2301616123663194e-02 -8.7713235741274342e-01
      -2.2910839783104570e-01 1.8190384933426965e-01
      -8.5776871473096972e-01 -4.2026989921301366e-01
      -5.3238735471365976e-02 -2.9478158444213515e-01
      -2.7995780916842353e-02 1.1773569611058462e-02
      -1.3681453540177813e-01 -7.7937359977502355e-02
      -3.9423192094399137e-02 3.2919166740382205e-01
      -3.0918056110698349e-02 2.5635696682800485e-01
      2.3552743233407038e-02 1.0252709439872291e-01
      -1.7100181996614702e-01 3.6650363801394775e-01
      4.7957698939990315e-02 1.9429611524919338e-01
      -3.7982179539156896e-01 2.5798941804670922e-02
      -4.5326630899026543e-01 -2.2930089927382988e-01
      -4.3574679725356641e-01 -8.0034476400621790e-01
      -1.2599808440437006e+00 -1.9342438003509557e-01
      8.3714434113796277e-01 -5.8678812747772413e-01
      -6.4491818441712112e-01 -6.7178794976545120e-01
      -4.3535968369333750e-01 -5.1134544394437575e-01
      5.4772659031634363e-01 -1.0334220288409395e+00
      -4.6034266885015407e-01 -4.6146484006795374e-01
      -1.8603372689397085e-01 -2.0736665724932821e-01
      4.8376051571961892e-01 6.4205536825960607e-01
      1.5005595471292466e-01 1.3746697429567559e-01
      3.5951173312373119e-01 2.1890191234617124e-02
      -4.0494221498575428e-02 1.8081645586678581e-02
      8.1464545625159590e-02 -5.1791859619648946e-02
      2.2367295064165316e-01 1.6822693376270595e-01
      -1.3138512923172399e-02 -1.2196581350340080e-01
      -2.2596907914428974e-01 -1.2155007621536812e-01
      1.6558203703695701e-01 7.7685152375519650e-02
      7.5862696246780464e-02 -1.4500378669796024e-01
      3.7646082974752755e-02 -1.1327303199231886e-01
      -1.6295879320267168e-01 -1.5143239491972552e-01
      1.4953707201631097e-01 2.1607863012189285e-01
      2.3981657291003680e-01 -2.3771872321888977e-02
      -2.1989768429306161e-01 -1.4355217791543642e-01
      1.4567368868617181e-01 -1.3685644928148230e-02
      2.1055044431287190e-01 4.4079992322358791e-02
      -1.5549018951070037e-01 -1.5378904200811921e-01
      4.9049977601039879e-02 6.2963546540408333e-01
      1.4037211674751468e-01 2.3949621543915203e-01
      1.0233076489447428e-02 4.8036768055897683e-02
      -6.1149642035588800e-02 5.5686929969238286e-01
      1.3300542020672670e-01 -1.1370042958414851e-02
      9.6915553925475670e-02 6.9629473663541067e-02
      3.7643011619855289e-02 5.0696742412991680e-01
      3.4051790760402834e-01 9.9194275819713768e-02
      8.8578705820678179e-03 1.6254639330135054e-01
      -1.0113947621464497e-01 5.8707762673715913e-01
      -8.9715884238627974e-02 -2.2266655322378943e-02
      6.6363749634036351e-02 1.8412505459199352e-01
      -8.0895916023264833e-02 3.2698869789470425e-02
      1.8020535643680932e-02 1.3127718378679881e-01
      7.4688057770263397e-02 2.3183946424852742e-01
      -2.0933997810078495e-01 -2.1410055827502181e-01
      6.8520565976963196e-02 4.4791892246251588e-02
      1.4593291629958147e-01 2.1295467958205366e-01
      -4.3259920017406389e-02 -1.5733789297049119e-01
      -4.7330956283030266e-02 -1.2912073257498261e-01
      4.5085552224252104e-02 -6.7467662053091902e-03
      9.5072514808704503e-02 1.9110926189756333e-01
      -3.0821462942101453e-02 -1.3380362072590538e-01
      -3.8669028996054830e-02 -1.6270632520977397e-02
      7.8312603313042031e-02 -2.2389275571579593e-02
      5.5946953837565164e-02 1.0270324882906878e-01
      2.8493510380081806e-02 -9.7089332044904969e-03
      5.3292935653056005e-02 7.2714976312230464e-02
      1.2428809085235842e-01 1.0110689227573246e-02
      -5.7415567020952466e-03 1.1141422480523942e-01
      4.3915685148278545e-02 2.7124912107956289e-01
      7.7127195985867342e-02 2.1252650905208931e-01
      1.4473071188747474e-01 8.3370416162308156e-02
      -5.0857979156957323e-03 1.1253152046615481e-01
      4.8967356482871767e-03 7.7006975257858504e-02
      -1.3498144789395776e-02 1.6462816628422857e-02
      -6.6950709754379001e-02 1.3883339126100822e-01
      -1.2832549060896767e-02 -2.5031550392656654e-01
      -1.7932036338906704e-01 -2.4749267489166760e-01
      1.8728332129008435e-01 3.9312731457205707e-01
      -3.2434409541225018e-01 -2.0616330722359127e-01
      -1.9391467860473915e-01 -1.4087085824367210e-01
      1.4478662402303566e-01 -8.1249422927598930e-02
      -2.6610840765346011e-01 2.9116248795163519e-02
      1.5930308662705975e-01 6.0040215989113521e-02
      1.9303538254617814e-01 -6.1795769854289928e-01
      9.7726213658540048e-02 8.8042136560289169e-03
      -1.5456255239061051e-01 -4.9174023857322856e-02
      5.5134951116458629e-02 -2.2797583814454794e-01
      -3.7705356951673275e-01 -4.9164297371360083e-01
      5.6333211909953447e-02 -1.2075590321291288e-01
      4.3950442640874771e-01 4.4470338382843139e-01
      9.9622202382993935e-02 3.0855162135913050e-01
      -1.2383260533390437e-01 1.4881150115790753e-01
      1.4589397738678880e-01 1.1991848554788458e-01
      9.4557781150692993e-02 -2.1252513438655438e-01
      -2.3751849843031006e-01 -3.4277087593127969e-01
      1.0537754075254099e-01 -2.9116794272618249e-02
      -4.3287436420442860e-01 -2.7872669078998744e-02
      -8.3442213007624189e-01 -1.6893942332875758e-01
      2.7135878206734204e-01 -1.2648245072035955e+00
      2.1692753743052218e-01 -2.6744410674656288e-01
      -3.1787126898928947e-01 -2.1477093964105978e-01
      2.0636383106029754e-01 -1.4487128591581178e-01
      1.0000345968866892e-02 1.8729969181456652e-01
      2.9536834401144263e-01 1.7273615003310259e-03
      -1.0389225568102353e-01 -2.3887488035740798e-02
      -7.0781819072459273e-01 2.5322460392521545e-01
      -7.2149875311021727e-01 8.6607707466926837e-02
      -3.5272800463954052e-01 -1.0558011987764475e+00
      -2.8321776948911370e-01 -9.7913508102066962e-02
      -5.3378803814796616e-01 -8.6684843061620853e-01
      7.0683690477221520e-02 -4.5814090905006982e-01
      7.0942696093683444e-01 6.5852935535212465e-01
      -8.1162337111486169e-02 -7.1184686279564119e-02
      -7.1589400618317278e-01 -2.5087262491003731e-01
      1.8290775496402681e-01 1.1126404643377663e-01
      1.4202018330616628e-01 -2.3133913531611347e-01
      1.0261860207049120e-01 5.5849614580177775e-01
      7.6946944374590509e-01 1.4491391392847283e-01
      2.6892672475649027e-01 1.4086772566528538e-01
      1.6354288877604276e-01 -4.3332025373024378e-02
      -4.4254491523990713e-01 1.2367130970478994e-01
      3.1312044447808085e-01 2.4612719189660617e-01
      -1.3324319980198554e-01 -2.2064784339460730e-01
      -1.5906030385770978e-01 6.2569138303571178e-02
      -5.3601491156869033e-02 3.6065093661963935e-02
      -1.0781777026649304e-01 -2.8797561458868914e-01
      -7.4195137324319690e-02 1.6632633460181134e-01
      -4.3488968500744948e-02 1.2867722387445191e-01
      -3.2609961667626763e-01 -7.4274319902597230e-01
      -3.0217716553372936e-01 7.6877616234005491e-02
      1.0250707589713330e-02 1.3264063543596444e-01
      -4.6627139296323922e-02 -4.6458599046856919e-01
      3.1798690039688333e-02 3.6470275045959033e-01
      2.4080996382118075e-01 1.7160188544624441e-01
      -9.6232304447915598e-02 2.0309887229091017e-01
      3.6767274433604676e-02 1.6164851848470774e-01
      1.3831945467395723e-01 1.7127299280884686e-01
      -1.6302753592363697e-01 1.1372132699477330e-01
      2.2947274906249809e-01 2.5846576922691927e-01
      1.6817492088371289e-01 1.7333479237669769e-01
      -2.1424741242088674e-01 3.2494600674110002e-01
      2.1018143311332402e-01 1.9534102283633945e-01
      3.3594668958734683e-02 1.6698125470172318e-01
      -2.0380310970545143e-01 2.9307233442369229e-01
      1.5713861936232379e-02 1.5649245402242407e-01
      -1.1909792544245384e-01 -2.0089988712247344e-02
      -1.7034147717952181e-01 9.9739104264675388e-02
      3.5734833980396619e-02 -5.8144914080448064e-02
      -2.3234091761816515e-02 1.8310901113005443e-01
      -2.4987943106925489e-01 1.6746409282727884e-01
      1.2428949867387556e-01 7.0899411177891170e-02
      9.7141413872686589e-03 1.8839634721132562e-01
      -2.4842084882185239e-01 -3.6594488169006401e-01
      -1.6317886206123719e-02 4.4274850760406013e-02
      -4.0866770376491848e-02 -5.7066234313714229e-02
      -5.7684250500167789e-02 1.2080778314251737e-01
      -2.1079144302428232e-01 1.3456845121784397e-01
      -6.6817767448795029e-02 1.0140907638140259e-01
      -2.3128350405747389e-01 -1.5480484234228326e-01
      2.3575293172071957e-01 2.9635576392876534e-01
      3.3919332515851999e-03 -5.3244061271893704e-02
      -1.9984313924283620e-01 4.6231106449087893e-02
      2.1427544942540055e-01 8.4629840512293400e-03
      1.2043440759391416e-01 -7.6188233728813677e-06
      -2.1348613037686065e-02 6.9871316224946522e-02
      2.9286582159581864e-01 -5.6518244969919480e-02
      1.0622740717024659e-01 -1.0830473841336391e-02
      8.0604212324656060e-02 4.5077806054350783e-01
      1.3828260251428809e-01 2.4024019832860008e-01
      3.5702848485233163e-01 1.4846928912205837e-01
      -8.9497083072932471e-02 1.9553785102817839e-01
      2.4260461787245347e-01 1.7387509444031349e-01
      2.5858329654040263e-01 8.0726657175655914e-02
      -1.4142602054308606e-03 6.1125593962769098e-01
      -9.9819304516773188e-03 8.6022244290290081e-02
      1.8654540139532265e-02 -5.7381597485983926e-02
      -1.2533742662162509e-01 1.6909232416813516e-01
      8.1382166738137376e-02 -8.7349019711643244e-02
      7.5578168810068472e-02 -3.8921371620189819e-02
      6.7417989910768292e-02 -3.0435164469297332e-01
      -4.0733565060096505e-01 -1.5030622261733270e-01
      -1.3983773765249430e-01 -1.2608487002675089e-01
      1.3466645363823315e-01 2.5032039578339838e-01
      1.4170775252243487e-01 4.0391018561214348e-01
      6.7930566890743060e-02 -9.2960644037618376e-02
      -2.2367789795128257e-01 4.2648494153032807e-01
      1.4128202244476501e-01 -1.9584113185827079e-01
      2.0956803270201521e-01 -5.6470486691471811e-02
      1.1073654281303315e-01 1.6651135448925858e-01
      -1.5833031868661229e-01 2.9290740981737223e-01
      -2.1112532804019868e-01 1.0613681380317272e-01
      1.2057478194734789e-01 2.0092795104869415e-02
      4.1936395593010162e-01 -8.6051307536895516e-01
      -1.7693591605203743e-01 -1.4421468898957909e-01
      4.0765099832652579e-01 -3.3625907907404073e-01
      -2.0892992885305531e-01 -7.7819173760039053e-03
      -7.3883331675068864e-01 -3.6008651713865880e-01
      1.0839756066235127e-01 -3.1897729524095897e-01
      -8.8554758944009333e-03 1.4474242581557445e-01
      -3.6345577346427155e-01 -1.3615267648293164e-01
      9.7641076142340980e-02 8.7601104928572412e-02
      -6.8378858768225292e-01 -8.3612082161216228e-01
      -5.1445326237455002e-01 -1.3989758977335370e-01
      6.3028201191933986e-01 -3.4173232004111692e-01
      4.2195841774616138e-01 -1.6112308960887631e-01
      8.8876068826359150e-02 1.6103012578115972e-02
      1.0512922746662672e-01 -2.9956159810129684e-01
      3.7841042843822026e-01 -3.4329351028632343e-01
      4.1115966609147170e-01 2.9568582178999079e-02
      3.5172948584430641e-01 -1.9674234392071802e-01
      1.0508588124390837e-01 -5.1445918808014225e-02
      2.8408131217280685e-01 -8.1553210728297687e-02
      3.2571114470875151e-01 3.9705310347296058e-01
      -3.4907934657647643e-01 1.0674586002526648e-01
      1.0189320422259018e-01 1.7544808023942643e-01
